svm_type EPSILON_SVR
kernel_type RBF
gamma 0.050000
nr_class 2
total_sv 648
rho -85.410394
probA 21.859569
SV
380.464737 1:-0.989588 2:-0.953693 3:-0.954751 4:0.171290 5:-0.607731 6:-0.977063 7:-0.981777 8:-0.221513 9:-0.828806 10:-0.958004 11:-0.967391 12:0.240032 13:-0.651436 14:-0.981973 15:-0.963323 16:0.255161 17:-0.654326 18:-0.991417 19:-0.989799 20:-0.982216 21:-0.965969 22:0.179073 23:-0.776222 24:-0.969713 25:-0.952318 26:-0.173893 27:-0.826379 28:-0.964375 29:-0.955461 30:0.549034 31:-0.798407 32:-0.980159 33:-0.965330 34:0.326687 35:-0.728166 36:-0.987586
1024.000000 1:0.005949 2:0.036678 3:0.149321 4:0.396138 5:-0.434915 6:-0.246091 7:0.175399 8:-0.140387 9:-0.442583 10:-0.308266 11:0.200000 12:0.126697 13:-0.304587 14:-0.503668 15:0.162891 16:0.247108 17:-0.343464 18:-0.360556 19:0.269127 20:-0.049778 21:0.078534 22:0.526456 23:-0.680302 24:-0.226037 25:0.260927 26:-0.017214 27:-0.499781 28:-0.352791 29:0.145281 30:0.405368 31:-0.507081 32:-0.496340 33:0.120260 34:0.356074 35:-0.547419 36:-0.424810
517.688264 1:-0.724839 2:-0.395542 3:-0.398190 4:0.506065 5:-0.699655 6:-0.520089 7:-0.421412 8:-0.025753 9:-0.721529 10:-0.519921 11:-0.326087 12:0.234011 13:-0.556381 14:-0.723466 15:-0.333333 16:0.297762 17:-0.579928 18:-0.665264 19:-0.599760 20:-0.124867 21:-0.188482 22:0.131662 23:-0.375008 24:-0.383645 25:-0.181457 26:-0.068532 27:-0.393261 28:-0.278339 29:-0.361612 30:0.359301 31:-0.248983 32:-0.271871 33:-0.343445 34:0.260709 35:-0.302378 36:-0.260097
1024.000000 1:-0.779871 2:-0.562780 3:-0.493213 4:0.328306 5:-0.675858 6:-0.712395 7:-0.503417 8:-0.247713 9:-0.664235 10:-0.749700 11:-0.443478 12:0.184798 13:-0.592728 14:-0.815476 15:-0.441208 16:0.138273 17:-0.555842 18:-0.813095 19:-0.641764 20:-0.378312 21:-0.316754 22:0.340619 23:-0.683372 24:-0.519271 25:-0.226490 26:-0.422672 27:-0.273921 28:-0.617365 29:-0.351007 30:0.173807 31:-0.319780 32:-0.609070 33:-0.349946 34:0.029724 35:-0.318500 36:-0.630726
83.817838 1:-0.219137 2:0.529761 3:0.285068 4:0.452849 5:0.043210 6:0.596924 7:0.332574 8:0.076326 9:-0.116097 10:0.550336 11:0.119565 12:0.814209 13:-0.005263 14:0.877189 15:0.238403 16:-0.006028 17:0.413612 18:0.273355 19:-0.000900 20:0.859255 21:0.431937 22:0.288659 23:0.052406 24:0.603755 25:0.597351 26:-0.302288 27:0.497195 28:0.431246 29:0.143160 30:0.878597 31:0.055516 32:1.350184 33:0.213434 34:-0.272282 35:0.633680 36:0.257090
1024.000000 1:0.294001 2:0.698087 3:0.490950 4:0.717785 5:-0.056448 6:0.946602 7:0.553531 8:-0.348676 9:0.328126 10:0.306114 11:0.534783 12:0.230504 13:0.268217 14:0.321424 15:0.486516 16:0.298410 17:0.286130 18:0.652451 19:0.852985 20:0.971008 21:0.853403 22:0.390597 23:0.044283 24:0.817774 25:0.968212 26:-0.101169 27:0.407566 28:0.679692 29:0.609756 30:0.327142 31:0.298969 32:0.723468 33:0.564464 34:0.303254 35:0.273418 36:0.953057
1024.000000 1:-0.393654 2:-0.209245 3:-0.074661 4:0.481379 5:-0.592757 6:-0.379639 7:-0.100228 8:-0.142703 9:-0.517815 10:-0.412457 11:-0.021739 12:0.173540 13:-0.446838 14:-0.630015 15:-0.061489 16:0.357055 17:-0.510175 18:-0.477772 19:-0.128713 20:0.095370 21:0.337697 22:0.206768 23:-0.399703 24:-0.254537 25:0.242384 26:0.243413 27:-0.452687 28:0.086232 29:0.083775 30:0.402608 31:-0.315394 32:-0.215963 33:0.061755 34:0.479046 35:-0.434799 36:-0.043582
1024.000000 1:-0.251363 2:-0.110059 3:-0.208145 4:0.447958 5:-0.426995 6:-0.165295 7:-0.193622 8:-0.200608 9:-0.395569 10:-0.345379 11:-0.067391 12:0.013240 13:-0.322000 14:-0.654626 15:-0.089536 16:0.061960 17:-0.323860 18:-0.579623 19:0.102310 20:-0.047445 21:-0.044503 22:0.589846 23:-0.667469 24:-0.083225 25:0.139073 26:-0.148552 27:-0.379086 28:-0.366699 29:0.109226 30:0.200830 31:-0.437207 32:-0.622922 33:0.083424 34:0.123265 35:-0.447280 36:-0.578005
1024.000000 1:-0.558255 2:-0.127814 3:-0.180995 4:0.474363 5:-0.510307 6:-0.256437 7:-0.095672 8:-0.430865 9:-0.297649 10:-0.560293 11:-0.045652 12:-0.080222 13:-0.250195 14:-0.668405 15:-0.042071 16:-0.111811 17:-0.219095 18:-0.642360 19:-0.302130 20:-0.084222 21:0.044503 22:0.554269 23:-0.733464 24:-0.285861 25:0.160265 26:-0.297769 27:-0.355653 28:-0.518639 29:0.024390 30:0.331873 31:-0.481045 32:-0.554606 33:0.003250 34:0.243321 35:-0.489456 36:-0.497701
-569.954023 1:-0.923153 2:-0.941736 3:-0.852941 4:0.407643 5:-0.794568 6:-0.818238 7:-0.815490 8:-0.155047 9:-0.869316 10:-0.896955 11:-0.830435 12:0.469694 13:-0.840246 14:-0.890638 15:-0.833873 16:0.497525 17:-0.849934 18:-0.877609 19:-0.867987 20:-0.835499 21:-0.900524 22:0.294334 23:-0.623108 24:-0.581510 25:-0.790728 26:-0.335298 27:-0.431656 28:-0.777370 29:-0.800636 30:0.263692 31:-0.445514 32:-0.857466 33:-0.811484 34:0.178679 35:-0.500327 36:-0.854467
-1024.000000 1:-0.852256 2:-0.780594 3:-0.687783 4:0.298583 5:-0.738325 6:-0.848431 7:-0.694761 8:-0.227501 9:-0.783159 10:-0.872351 11:-0.580435 12:0.122524 13:-0.678613 14:-0.946741 15:-0.579288 16:0.143878 17:-0.681807 18:-0.948501 19:-0.740774 20:-0.636224 21:-0.497382 22:0.057743 23:-0.573304 24:-0.779884 25:-0.552318 26:-0.328019 27:-0.479302 28:-0.746948 29:-0.550371 30:0.184430 31:-0.518471 32:-0.873758 33:-0.527627 34:0.034860 35:-0.514515 36:-0.886283
1024.000000 1:-0.213684 2:-0.484637 3:0.067873 4:0.789934 5:-0.902255 6:-0.623088 7:0.068337 8:0.095484 9:-0.906266 10:-0.736418 11:0.132609 12:0.616572 13:-0.871286 14:-0.805014 15:0.139159 16:0.614948 17:-0.870270 18:-0.788945 19:0.030903 20:-0.253707 21:0.000000 22:0.728656 23:-0.847472 24:-0.259675 25:0.202649 26:0.316070 27:-0.835101 28:-0.478298 29:-0.018028 30:0.964043 31:-0.841666 32:-0.466353 33:-0.033586 34:0.735840 35:-0.832071 36:-0.460740
1024.000000 1:-0.405057 2:-0.439900 3:-0.409502 4:0.393508 5:-0.666741 6:-0.615203 7:-0.453303 8:-0.175919 9:-0.655961 10:-0.644094 11:-0.510870 12:0.454517 13:-0.661476 14:-0.653973 15:-0.475728 16:0.360537 17:-0.630819 18:-0.682030 19:-0.032703 20:-0.275658 21:-0.227749 22:0.522925 23:-0.780498 24:-0.415160 25:-0.088742 26:-0.209080 27:-0.550321 28:-0.641523 29:-0.321315 30:0.737984 31:-0.721489 32:-0.496824 33:-0.276273 34:0.382168 35:-0.667329 36:-0.625255
-573.095915 1:-0.807139 2:-0.724339 3:-0.669683 4:0.552825 5:-0.850543 6:-0.710477 7:-0.628702 8:-0.163577 9:-0.786485 10:-0.797580 11:-0.600000 12:0.369439 13:-0.748185 14:-0.843896 15:-0.594391 16:0.397709 17:-0.762077 18:-0.829492 19:-0.735974 20:-0.516039 21:-0.599476 22:0.208428 23:-0.545095 24:-0.556703 25:-0.602649 26:-0.160702 27:-0.418300 28:-0.462641 29:-0.637328 30:0.432038 31:-0.449844 32:-0.549380 33:-0.609967 34:0.191261 35:-0.410231 36:-0.621221
-1024.000000 1:-0.858701 2:-0.485165 3:-0.642534 4:0.423040 5:-0.582576 6:-0.465214 7:-0.553531 8:-0.626379 9:-0.180690 10:-0.812321 11:-0.600000 12:-0.197782 13:-0.080151 14:-0.806817 15:-0.598706 16:-0.146112 17:-0.104210 18:-0.770817 19:-0.800780 20:-0.448575 21:-0.589005 22:0.114562 23:-0.401365 24:-0.529472 25:-0.435762 26:-0.705160 27:-0.075101 28:-0.816024 29:-0.605514 30:0.118031 31:-0.266290 32:-0.728140 33:-0.588299 34:0.003618 35:-0.294307 36:-0.740375
1024.000000 1:-0.411006 2:-0.379030 3:-0.319005 4:0.548706 5:-0.715129 6:-0.491536 7:-0.302961 8:-0.102415 9:-0.673883 10:-0.566472 11:-0.400000 12:0.445491 13:-0.611630 14:-0.591324 15:-0.391586 16:0.416642 17:-0.592091 18:-0.552011 19:-0.196520 20:-0.217097 21:-0.230366 22:0.292793 23:-0.593101 24:-0.446085 25:-0.184106 26:-0.267067 27:-0.336606 28:-0.485112 29:-0.372216 30:0.685896 31:-0.587870 32:-0.327779 33:-0.347779 34:0.451583 35:-0.568112 36:-0.372742
1024.000000 1:0.387209 2:0.433245 3:0.583711 4:1.006795 5:-0.513842 6:0.563583 7:0.658314 8:0.083333 9:-0.364505 10:0.152617 11:0.554348 12:0.250139 13:-0.044421 14:-0.041483 15:0.544768 16:0.383957 17:-0.101026 18:0.205064 19:0.975998 20:0.751858 21:0.958115 22:0.634087 23:-0.350115 24:0.589276 25:1.045033 26:-0.042864 27:0.069493 28:0.347153 29:0.520679 30:0.564070 31:0.023856 32:0.665336 33:0.495125 34:0.545847 35:-0.066750 36:0.828371
1024.000000 1:0.123451 2:0.595544 3:0.432127 4:0.339515 5:0.001624 6:0.329766 7:0.446469 8:0.063880 9:-0.172099 10:0.429943 11:0.350000 12:0.099810 13:0.224812 14:0.070134 15:0.346278 16:0.442375 17:0.043030 18:0.521311 19:0.164116 20:0.600898 21:0.316754 22:0.413964 23:-0.289704 24:0.284097 25:0.470199 26:0.068810 27:-0.127531 28:0.272783 29:0.187699 30:0.470580 31:-0.141934 32:0.181232 33:0.161430 34:0.524402 35:-0.231491 36:0.438710
1024.000000 1:-0.686168 2:-0.293294 3:-0.407240 4:0.193424 5:-0.363505 6:-0.485638 7:-0.398633 8:-0.433707 9:-0.213341 10:-0.534237 11:-0.432609 12:0.091800 13:-0.256158 14:-0.590038 15:-0.434736 16:0.125830 17:-0.266174 18:-0.519867 19:-0.554755 20:-0.227560 21:-0.301047 22:0.271355 23:-0.618431 24:-0.521378 25:-0.268874 26:-0.025302 27:-0.528482 28:-0.390693 29:-0.431601 30:0.552267 31:-0.527700 32:-0.427898 33:-0.421452 34:0.394782 35:-0.545397 36:-0.437785
1024.000000 1:0.320773 2:0.055188 3:0.418552 4:0.560296 5:-0.558061 6:-0.221127 7:0.382688 8:-0.032117 9:-0.545001 10:-0.298228 11:0.402174 12:0.255487 13:-0.394379 14:-0.467046 15:0.387271 16:0.222533 17:-0.357132 18:-0.391042 19:0.794779 20:0.081902 21:0.659686 22:0.610114 23:-0.720538 24:-0.200616 25:0.615894 26:0.205598 27:-0.592511 28:-0.218125 29:0.450689 30:0.658893 31:-0.591694 32:-0.319741 33:0.449621 34:0.499699 35:-0.582227 36:-0.267510
-1024.000000 1:0.274170 2:-0.170957 3:0.515837 4:1.070561 5:-0.891377 6:-0.314439 7:0.512529 8:0.296424 9:-0.863415 10:-0.444211 11:0.304348 12:0.661635 13:-0.708868 14:-0.510693 15:0.270766 16:0.957314 17:-0.790421 18:-0.271790 19:0.481548 20:0.220698 21:0.536649 22:0.748403 23:-0.739524 24:-0.016485 25:0.629139 26:0.127015 27:-0.505359 28:-0.186614 29:0.187699 30:0.624776 31:-0.418131 32:-0.062883 33:0.098592 34:0.961468 35:-0.624598 36:0.440258
869.865093 1:-0.925632 2:-0.780803 3:-0.852941 4:0.334712 5:-0.715843 6:-0.820742 7:-0.808656 8:-0.369589 9:-0.599780 10:-0.900055 11:-0.882609 12:0.247194 13:-0.525850 14:-0.842912 15:-0.909385 16:0.395235 17:-0.623341 18:-0.750885 19:-0.897390 20:-0.634965 21:-0.793194 22:0.084628 23:-0.457603 24:-0.722030 25:-0.658278 26:-0.711429 27:0.008197 28:-0.863304 29:-0.874867 30:0.423520 31:-0.337694 32:-0.585386 33:-0.906826 34:0.444842 35:-0.494903 36:-0.457797
1024.000000 1:-0.393654 2:-0.209245 3:-0.074661 4:0.481379 5:-0.592757 6:-0.379639 7:-0.100228 8:-0.142703 9:-0.517815 10:-0.412457 11:-0.021739 12:0.173540 13:-0.446838 14:-0.630015 15:-0.061489 16:0.357055 17:-0.510175 18:-0.477772 19:-0.128713 20:0.095370 21:0.337697 22:0.206768 23:-0.399703 24:-0.254537 25:0.242384 26:0.243413 27:-0.452687 28:0.086232 29:0.083775 30:0.402608 31:-0.315394 32:-0.215963 33:0.061755 34:0.479046 35:-0.434799 36:-0.043582
-126.341438 1:-0.555776 2:-0.528988 3:-0.343891 4:0.481406 5:-0.742990 6:-0.623422 7:-0.282460 8:-0.262779 9:-0.637512 10:-0.721973 11:-0.195652 12:0.031683 13:-0.515384 14:-0.824146 15:-0.234088 16:0.238510 17:-0.604293 18:-0.740889 19:1.025803 20:0.044976 21:0.358639 22:0.083887 23:-0.157179 24:-0.104757 25:0.856954 26:-0.671672 27:0.269573 28:-0.307426 29:0.949099 30:-0.498961 31:0.179935 32:-0.536789 33:0.937161 34:-0.330490 35:0.068831 36:-0.390944
-53.589031 1:-0.522062 2:-0.331763 3:-0.097285 4:-0.109768 5:-0.160968 6:-0.583842 7:-0.282460 8:-0.183831 9:-0.497082 10:-0.449820 11:-0.128261 12:-0.113004 13:-0.202153 14:-0.670427 15:-0.121899 16:-0.094625 17:-0.185312 18:-0.608776 19:0.190519 20:0.198742 21:0.861257 22:-0.359176 23:0.188216 24:-0.307383 25:0.321854 26:-0.211331 27:0.091537 28:0.102874 29:0.480382 30:-0.335261 31:0.329854 32:-0.271823 33:0.540628 34:-0.447775 35:0.368171 36:-0.267578
-1024.000000 1:-0.748141 2:-0.529072 3:-0.357466 4:0.454047 5:-0.625862 6:-0.471915 7:-0.371298 8:-0.054491 9:-0.666955 10:-0.483510 11:-0.389130 12:0.388703 13:-0.552266 14:-0.576558 15:-0.380798 16:0.323032 17:-0.506368 18:-0.547832 19:-0.695770 20:-0.217569 21:-0.405759 22:0.196657 23:-0.194567 24:-0.052222 25:-0.411921 26:-0.089257 27:0.029444 28:0.219071 29:-0.465536 30:0.058308 31:0.180707 32:-0.232680 33:-0.453954 34:-0.022448 35:0.111590 36:-0.245359
1024.000000 1:-0.499256 2:-0.616938 3:-0.045249 4:0.887866 5:-0.975293 6:-0.743657 7:0.015945 8:0.163251 9:-0.967756 10:-0.819837 11:-0.030435 12:0.808448 13:-0.950977 14:-0.828132 15:-0.031284 16:0.790770 17:-0.947432 18:-0.818060 19:-0.293729 20:-0.356688 21:0.047120 22:0.888391 23:-0.986113 24:-0.435363 25:0.189404 26:0.033508 27:-0.769846 28:-0.667003 29:-0.024390 30:0.802990 31:-0.831879 32:-0.623995 33:0.001083 34:0.565898 35:-0.820635 36:-0.647984
-1024.000000 1:-0.852256 2:-0.780594 3:-0.687783 4:0.298583 5:-0.738325 6:-0.848431 7:-0.694761 8:-0.227501 9:-0.783159 10:-0.872351 11:-0.580435 12:0.122524 13:-0.678613 14:-0.946741 15:-0.579288 16:0.143878 17:-0.681807 18:-0.948501 19:-0.740774 20:-0.636224 21:-0.497382 22:0.057743 23:-0.573304 24:-0.779884 25:-0.552318 26:-0.328019 27:-0.479302 28:-0.746948 29:-0.550371 30:0.184430 31:-0.518471 32:-0.873758 33:-0.527627 34:0.034860 35:-0.514515 36:-0.886283
1024.000000 1:-0.938027 2:-0.942924 3:-0.880090 4:0.278578 5:-0.659170 6:-0.847375 7:-0.927107 8:-0.125406 9:-0.836994 10:-0.811391 11:-0.915217 12:0.391871 13:-0.722800 14:-0.866777 15:-0.911543 16:0.411552 17:-0.730214 18:-0.851412 19:-0.866787 20:-0.879598 21:-0.743455 22:-0.075964 23:-0.366984 24:-0.842491 25:-0.782781 26:-0.199504 27:-0.651090 28:-0.795431 29:-0.826087 30:0.510520 31:-0.652889 32:-0.796071 33:-0.833153 34:0.323653 35:-0.626786 36:-0.807353
741.161025 1:-0.633118 2:-0.659780 3:-0.165158 4:0.214624 5:-0.634402 6:-0.746424 7:-0.164009 8:-0.420428 9:-0.545011 10:-0.786302 11:-0.069565 12:0.021600 13:-0.561937 14:-0.853411 15:-0.080906 16:0.048942 17:-0.565385 18:-0.837289 19:0.258926 20:-0.200387 21:0.879581 22:0.062974 23:-0.404792 24:-0.433406 25:0.396026 26:-0.143269 27:-0.335740 28:-0.303763 29:0.529162 30:0.328228 31:-0.419016 32:-0.419335 33:0.540628 34:0.218736 35:-0.440550 36:-0.402530
-666.941820 1:-0.650471 2:-0.670128 3:-0.257919 4:0.250912 5:-0.764847 6:-0.870597 7:-0.280182 8:-0.221465 9:-0.800099 10:-0.861811 11:-0.258696 12:0.221127 13:-0.744506 14:-0.904491 15:-0.279396 16:0.269272 17:-0.748401 18:-0.883094 19:-0.027303 20:-0.415392 21:0.500000 22:0.131312 23:-0.663459 24:-0.706820 25:0.560265 26:-0.366971 27:-0.494032 28:-0.708291 29:0.391304 30:0.226430 31:-0.559811 32:-0.720829 33:0.317443 34:0.250393 35:-0.627453 36:-0.658546
-1024.000000 1:-0.903322 2:-0.824524 3:-0.762443 4:0.272285 5:-0.703915 6:-0.856881 7:-0.742597 8:-0.286080 9:-0.755865 10:-0.914604 11:-0.743478 12:0.278037 13:-0.729407 14:-0.920724 15:-0.732470 16:0.255558 17:-0.713605 18:-0.931473 19:-0.823582 20:-0.610975 21:-0.599476 22:0.036607 23:-0.388368 24:-0.642874 25:-0.515232 26:-0.352091 27:-0.442311 28:-0.734629 29:-0.590668 30:0.285096 31:-0.470946 32:-0.742067 33:-0.577465 34:0.078137 35:-0.424784 36:-0.773906
434.495565 1:-0.989093 2:-0.933160 3:-0.997738 4:0.392370 5:-0.237344 6:-0.153931 7:-0.945330 8:-0.403287 9:-0.003254 10:-0.621072 11:-0.943478 12:0.070856 13:0.024893 14:-0.752510 15:-0.937433 16:0.091077 17:0.028760 18:-0.708074 19:-0.986799 20:-0.886384 21:-0.965969 22:0.224580 23:-0.227483 24:-0.258595 25:-0.923179 26:-0.185842 27:-0.095316 28:-0.220440 29:-0.936373 30:0.359733 31:-0.074323 32:-0.488539 33:-0.941495 34:0.218783 35:-0.067587 36:-0.474504
1024.000000 1:-0.388200 2:0.290538 3:0.119910 4:0.043216 5:0.268813 6:0.153579 7:0.070615 8:-0.453835 9:0.275414 10:0.009899 11:0.117391 12:-0.219807 13:0.375489 14:-0.218727 15:0.128371 16:-0.190082 17:0.355367 18:-0.103520 19:0.048905 20:0.536596 21:0.369110 22:0.291429 23:-0.054988 24:0.433125 25:0.446358 26:-0.179754 27:0.165329 28:0.244149 29:0.274655 30:0.224299 31:0.084030 32:0.159034 33:0.267606 34:0.003120 35:0.151498 36:0.112059
-1024.000000 1:-0.601884 2:-0.155522 3:-0.251131 4:0.068195 5:0.089187 6:-0.103530 7:-0.225513 8:-0.550540 9:0.146692 10:-0.340932 11:0.002174 12:-0.626350 13:0.305908 14:-0.708514 15:-0.046386 16:-0.572971 17:0.347652 18:-0.629497 19:-0.072907 20:0.293309 21:0.235602 22:0.163460 23:0.071802 24:0.358219 25:0.411921 26:-0.530516 27:0.500496 28:0.053789 29:0.597031 30:-0.472287 31:0.329935 32:-0.411278 33:0.705309 34:-0.566182 35:0.350702 36:-0.412731
1024.000000 1:-0.445216 2:-0.357099 3:-0.119910 4:0.665678 5:-0.794732 6:-0.504440 7:-0.129841 8:0.047189 9:-0.808562 10:-0.590116 11:-0.102174 12:0.455990 13:-0.714642 14:-0.701810 15:-0.093851 16:0.420546 17:-0.694022 18:-0.675623 19:-0.224722 20:-0.144704 21:-0.083770 22:0.572053 23:-0.737166 24:-0.256445 25:0.070199 26:-0.114517 27:-0.503002 28:-0.475287 29:-0.060445 30:0.448636 31:-0.544069 32:-0.525196 33:-0.031419 34:0.307961 35:-0.555761 36:-0.517306
-361.762829 1:-0.709965 2:-0.707615 3:-0.452489 4:0.822793 5:-0.983705 6:-0.781583 7:-0.441913 8:0.135035 9:-0.980068 10:-0.838437 11:-0.386957 12:0.718697 13:-0.964828 14:-0.899061 15:-0.380798 16:0.712623 17:-0.963737 18:-0.899593 19:-0.491149 20:-0.505980 21:-0.185864 22:0.587759 23:-0.939183 24:-0.668737 25:-0.160265 26:0.089921 27:-0.846022 28:-0.714178 29:-0.342524 30:0.701796 31:-0.828307 32:-0.731772 33:-0.276273 34:0.488737 35:-0.835071 36:-0.771074
1024.000000 1:-0.686663 2:-0.554766 3:-0.357466 4:0.476506 5:-0.819202 6:-0.752072 7:-0.432802 8:-0.007797 9:-0.833283 10:-0.677913 11:-0.389130 12:0.413221 13:-0.753279 14:-0.796528 15:-0.337648 16:0.348428 17:-0.738148 18:-0.815906 19:-0.534953 20:-0.325985 21:-0.086387 22:-0.004314 23:-0.487988 24:-0.691476 25:-0.287417 26:0.133924 27:-0.664304 28:-0.358500 29:-0.382821 30:0.382377 31:-0.453895 32:-0.534375 33:-0.271939 34:0.035750 35:-0.383194 36:-0.673525
789.045253 1:-0.902826 2:-0.617726 3:-0.751131 4:-0.032116 5:0.024557 6:-0.611311 7:-0.715262 8:-0.692741 9:0.224727 10:-0.748798 11:-0.704348 12:-0.403142 13:0.223011 14:-0.886681 15:-0.708738 16:-0.349507 17:0.211247 18:-0.864037 19:-0.825383 20:-0.453513 21:-0.620419 22:-0.006276 23:-0.142311 24:-0.458826 25:-0.456954 26:-0.933723 27:0.524372 28:-0.713752 29:-0.558855 30:-0.381596 31:0.257531 32:-0.810183 33:-0.562297 34:-0.397432 35:0.217066 36:-0.784879
1024.000000 1:0.338126 2:0.599909 3:0.452489 4:0.069531 5:0.569497 6:0.634607 7:0.553531 8:-0.254133 9:0.233306 10:0.370080 11:0.828261 12:-0.560926 13:0.521512 14:-0.351204 15:0.814455 16:-0.543225 17:0.548528 18:-0.238181 19:0.860786 20:0.525060 21:0.693717 22:0.270480 23:-0.052268 24:0.407699 25:0.875497 26:0.319199 27:-0.202178 28:0.555007 29:0.809120 30:-0.321282 31:0.178421 32:-0.369284 33:0.833153 34:-0.376721 35:0.169320 36:-0.347343
1024.000000 1:-0.254338 2:-0.174143 3:-0.117647 4:0.339790 5:-0.494411 6:-0.420609 7:-0.072893 8:-0.206093 9:-0.504437 10:-0.484984 11:-0.032609 12:0.096456 13:-0.425146 14:-0.675753 15:-0.044229 16:0.130607 17:-0.426731 18:-0.616817 19:0.054905 20:-0.206806 21:-0.049738 22:0.538767 23:-0.756260 24:-0.351469 25:0.022517 26:-0.259447 27:-0.380075 28:-0.507998 29:-0.119830 30:0.351041 31:-0.509205 32:-0.593041 33:-0.107259 34:0.225665 35:-0.522093 36:-0.582975
286.965616 1:-0.678235 2:-0.271927 3:-0.420814 4:0.292212 5:-0.217036 6:-0.141811 7:-0.460137 8:-0.153640 9:-0.273052 10:-0.111034 11:-0.226087 12:-0.300341 13:-0.052782 14:-0.737411 15:-0.221143 16:-0.308661 17:-0.033286 18:-0.716444 19:-0.558356 20:-0.193996 21:-0.455497 22:0.364219 23:-0.384367 24:0.007153 25:-0.316556 26:-0.294527 27:-0.062070 28:-0.248810 29:-0.321315 30:-0.103519 31:-0.101237 32:-0.678250 33:-0.304442 34:-0.229770 35:-0.098666 36:-0.705294
745.601706 1:-0.766485 2:-0.598350 3:-0.504525 4:0.291363 5:-0.616746 6:-0.682542 7:-0.432802 8:-0.461965 9:-0.427514 10:-0.767988 11:-0.493478 12:0.039919 13:-0.409166 14:-0.789500 15:-0.501618 16:0.051200 17:-0.392132 18:-0.758018 19:-0.469547 20:-0.269304 21:-0.115183 22:0.162613 23:-0.480645 24:-0.469032 25:0.025166 26:-0.814220 27:0.308313 28:-0.551667 29:-0.151644 30:0.080930 31:-0.221900 32:-0.544306 33:-0.174431 34:-0.015508 35:-0.216757 36:-0.517095
-124.933724 1:-0.675260 2:-0.650365 3:-0.450226 4:0.375930 5:-0.728721 6:-0.725798 7:-0.455581 8:-0.264257 9:-0.661738 10:-0.762474 11:-0.445652 12:0.264782 13:-0.664052 14:-0.820778 15:-0.434736 16:0.244735 17:-0.650644 18:-0.814941 19:-0.324332 20:-0.265131 21:-0.167539 22:-0.213791 23:0.048237 24:-0.428614 25:-0.133775 26:-0.596773 27:0.201483 28:-0.403112 29:-0.060445 30:-0.369607 31:0.085802 32:-0.688041 33:-0.016251 34:-0.493225 35:0.098822 36:-0.723589
1024.000000 1:-0.562717 2:-0.750768 3:-0.450226 4:0.555952 5:-0.929890 6:-0.871448 7:-0.462415 8:-0.077432 9:-0.920517 10:-0.896937 11:-0.439130 12:0.563606 13:-0.924725 14:-0.917021 15:-0.447681 16:0.552597 17:-0.918088 18:-0.916737 19:-0.248725 20:-0.616089 21:-0.295812 22:0.616882 23:-0.983831 24:-0.736773 25:-0.128477 26:0.202126 27:-0.947481 28:-0.794180 29:-0.361612 30:0.907764 31:-0.961945 32:-0.795342 33:-0.349946 34:0.703317 35:-0.963063 36:-0.795598
-931.610267 1:-0.914725 2:-0.885367 3:-0.787330 4:0.811545 5:-0.964463 6:-0.582148 7:-0.738041 8:-0.113393 9:-0.820044 10:-0.776406 11:-0.756522 12:0.589123 13:-0.848420 14:-0.780730 15:-0.749730 16:0.586628 17:-0.847206 18:-0.764415 19:-0.874587 20:-0.721439 21:-0.717277 22:0.482777 23:-0.710547 24:-0.308976 25:-0.682119 26:-0.178780 27:-0.326837 28:-0.398843 29:-0.717922 30:0.410589 31:-0.392382 32:-0.547841 33:-0.683640 34:0.247279 35:-0.443547 36:-0.614512
1024.000000 1:-0.562717 2:-0.750768 3:-0.450226 4:0.555952 5:-0.929890 6:-0.871448 7:-0.462415 8:-0.077432 9:-0.920517 10:-0.896937 11:-0.439130 12:0.563606 13:-0.924725 14:-0.917021 15:-0.447681 16:0.552597 17:-0.918088 18:-0.916737 19:-0.248725 20:-0.616089 21:-0.295812 22:0.616882 23:-0.983831 24:-0.736773 25:-0.128477 26:0.202126 27:-0.947481 28:-0.794180 29:-0.361612 30:0.907764 31:-0.961945 32:-0.795342 33:-0.349946 34:0.703317 35:-0.963063 36:-0.795598
1024.000000 1:-0.480416 2:-0.474526 3:-0.190045 4:0.484980 5:-0.766405 6:-0.657665 7:-0.220957 8:-0.145499 9:-0.734410 10:-0.703946 11:-0.139130 12:0.322080 13:-0.719525 14:-0.810049 15:-0.143474 16:0.316506 17:-0.710445 18:-0.792774 19:0.074707 20:-0.338741 21:0.342932 22:0.384229 23:-0.763844 24:-0.582122 25:0.313907 26:0.008085 27:-0.675837 28:-0.562772 29:0.121951 30:0.689903 31:-0.731672 32:-0.550053 33:0.172264 34:0.467049 35:-0.722254 36:-0.576386
1024.000000 1:-0.702033 2:-0.646201 3:-0.407240 4:0.672356 5:-0.926771 6:-0.761383 7:-0.405467 8:0.009234 9:-0.916095 10:-0.810610 11:-0.330435 12:0.499199 13:-0.874658 14:-0.884757 15:-0.329018 16:0.487139 17:-0.867611 18:-0.881703 19:-0.507351 20:-0.559356 21:-0.149215 22:0.529918 23:-0.949745 24:-0.760529 25:-0.080795 26:-0.040206 27:-0.839452 28:-0.825929 29:-0.270414 30:0.774619 31:-0.908371 32:-0.803784 33:-0.250271 34:0.601482 35:-0.918658 36:-0.804511
1024.000000 1:-0.643034 2:-0.521746 3:-0.307692 4:0.419839 5:-0.741920 6:-0.690676 7:-0.284738 8:-0.211842 9:-0.701402 10:-0.738109 11:-0.263043 12:0.294373 13:-0.706719 14:-0.823664 15:-0.255663 16:0.308434 17:-0.707082 18:-0.803946 19:-0.412541 20:-0.492507 21:0.007853 22:0.392030 23:-0.840422 24:-0.704902 25:0.056954 26:-0.102696 27:-0.719072 28:-0.727381 29:-0.092259 30:0.630244 31:-0.800305 32:-0.737684 33:-0.072589 34:0.480815 35:-0.810708 36:-0.725935
1024.000000 1:-0.702033 2:-0.646201 3:-0.407240 4:0.672356 5:-0.926771 6:-0.761383 7:-0.405467 8:0.009234 9:-0.916095 10:-0.810610 11:-0.330435 12:0.499199 13:-0.874658 14:-0.884757 15:-0.329018 16:0.487139 17:-0.867611 18:-0.881703 19:-0.507351 20:-0.559356 21:-0.149215 22:0.529918 23:-0.949745 24:-0.760529 25:-0.080795 26:-0.040206 27:-0.839452 28:-0.825929 29:-0.270414 30:0.774619 31:-0.908371 32:-0.803784 33:-0.250271 34:0.601482 35:-0.918658 36:-0.804511
-577.668953 1:-0.805652 2:-0.447916 3:-0.524887 4:0.135499 5:-0.298122 6:-0.525602 7:-0.466970 8:-0.495002 9:-0.204910 10:-0.633574 11:-0.467391 12:-0.195676 13:-0.101240 14:-0.759221 15:-0.471413 16:-0.160274 17:-0.107332 18:-0.721375 19:-0.711371 20:-0.186406 21:-0.350785 22:-0.005915 23:-0.097157 24:-0.301668 25:-0.305960 26:-0.746333 27:0.528252 28:-0.400041 29:-0.346766 30:-0.366174 31:0.288387 32:-0.631869 33:-0.328277 34:-0.319899 35:0.152722 36:-0.594306
-299.450394 1:-0.675260 2:-0.650365 3:-0.450226 4:0.375930 5:-0.728721 6:-0.725798 7:-0.455581 8:-0.264257 9:-0.661738 10:-0.762474 11:-0.445652 12:0.264782 13:-0.664052 14:-0.820778 15:-0.434736 16:0.244735 17:-0.650644 18:-0.814941 19:-0.324332 20:-0.265131 21:-0.167539 22:-0.213791 23:0.048237 24:-0.428614 25:-0.133775 26:-0.596773 27:0.201483 28:-0.403112 29:-0.060445 30:-0.369607 31:0.085802 32:-0.688041 33:-0.016251 34:-0.493225 35:0.098822 36:-0.723589
1024.000000 1:-0.658899 2:-0.576458 3:-0.463801 4:0.685302 5:-0.876503 6:-0.620400 7:-0.382688 8:-0.270679 9:-0.732820 10:-0.838660 11:-0.341304 12:0.228501 13:-0.715285 14:-0.881586 15:-0.376483 16:0.238570 17:-0.697466 18:-0.861612 19:-0.437144 20:-0.446332 21:-0.303665 22:0.645155 23:-0.911560 24:-0.512445 25:-0.101987 26:-0.391044 27:-0.546780 28:-0.813660 29:-0.270414 30:0.324094 31:-0.640575 32:-0.810138 33:-0.334778 34:0.345886 35:-0.698468 36:-0.723562
1024.000000 1:-0.720873 2:-0.682637 3:-0.500000 4:0.535011 5:-0.881060 6:-0.796992 7:-0.473804 8:-0.178732 9:-0.825096 10:-0.857803 11:-0.447826 12:0.365598 13:-0.816392 14:-0.903115 15:-0.439051 16:0.355219 17:-0.807380 18:-0.902737 19:-0.564356 20:-0.637616 21:-0.405759 22:0.535438 23:-0.955020 24:-0.753220 25:-0.327152 26:-0.187488 27:-0.738864 28:-0.835255 29:-0.387063 30:0.603947 31:-0.852891 32:-0.863220 33:-0.401950 34:0.456461 35:-0.859307 36:-0.851945
-195.934560 1:-0.710461 2:-0.299699 3:-0.409502 4:0.044113 5:-0.065507 6:-0.368968 7:-0.469248 8:-0.463846 9:0.044260 10:-0.361776 11:-0.265217 12:-0.534651 13:0.196595 14:-0.778659 15:-0.214671 16:-0.595585 17:0.208660 18:-0.801212 19:-0.407141 20:0.060879 21:-0.010471 22:0.064894 23:-0.149462 24:-0.169687 25:-0.162914 26:-0.107281 27:-0.035578 28:0.107612 29:0.100742 30:-0.299956 31:0.067117 32:-0.590209 33:0.187433 34:-0.396325 35:0.033270 36:-0.624971
190.626402 1:-0.720377 2:-0.037845 3:-0.325792 4:0.093933 5:0.188568 6:0.039069 7:-0.227790 8:-0.845660 9:0.715572 10:-0.353270 11:-0.152174 12:-1.008922 13:0.857225 14:-0.759474 15:-0.149946 16:-0.970817 17:0.858142 18:-0.724301 19:-0.518152 20:0.092963 21:-0.099476 22:0.258705 23:-0.140246 24:0.201124 25:0.080795 26:-0.763699 27:0.618283 28:-0.236281 29:0.077413 30:-0.532199 31:0.313948 32:-0.612345 33:0.070423 34:-0.582243 35:0.323709 36:-0.605094
816.733295 1:-0.888448 2:-0.581088 3:-0.708145 4:0.022568 5:-0.120335 6:-0.612656 7:-0.712984 8:-0.468708 9:-0.159402 10:-0.659090 11:-0.652174 12:-0.396032 13:0.153363 14:-0.875592 15:-0.628910 16:-0.438262 17:0.166036 18:-0.901293 19:-0.834983 20:-0.390455 21:-0.573298 22:-0.186342 23:0.068091 24:-0.536485 25:-0.539073 26:-0.527407 27:0.104963 28:-0.508833 29:-0.586426 30:-0.305356 31:0.255023 32:-0.754345 33:-0.553629 34:-0.472356 35:0.278660 36:-0.820557
1024.000000 1:-0.663361 2:-0.192744 3:-0.350679 4:0.161148 5:-0.086462 6:-0.185210 7:-0.414579 8:-0.170671 9:-0.147698 10:0.017770 11:-0.254348 12:-0.320921 13:0.151776 14:-0.619137 15:-0.231931 16:-0.360385 17:0.171734 18:-0.609671 19:-0.315932 20:0.188577 21:0.151832 22:0.003378 23:-0.031662 24:-0.097897 25:0.027815 26:-0.076961 27:0.094165 28:0.325938 29:0.162248 30:-0.349562 31:0.250973 32:-0.447169 33:0.183099 34:-0.436367 35:0.249048 36:-0.462209
1024.000000 1:0.323252 2:0.684741 3:0.506787 4:0.167757 5:0.377207 6:0.565012 7:0.580866 8:-0.450846 9:0.431234 10:0.237189 11:0.539131 12:-0.021675 13:0.447688 14:0.178614 15:0.499461 16:0.072467 17:0.437704 18:0.476190 19:0.781578 20:0.713456 21:0.500000 22:0.405073 23:-0.042742 24:0.696890 25:0.827815 26:-0.297701 27:0.328625 28:0.259498 29:0.601273 30:0.272427 31:0.076359 32:0.268398 33:0.542795 34:0.260887 35:0.020706 36:0.418069
-330.838023 1:-0.722360 2:-0.248536 3:-0.425339 4:0.073915 5:-0.036217 6:-0.294790 7:-0.382688 8:-0.655270 9:0.181968 10:-0.525337 11:-0.282609 12:-0.457188 13:0.174598 14:-0.735900 15:-0.285868 16:-0.439818 17:0.190501 18:-0.699752 19:-0.411941 20:-0.028749 21:-0.130890 22:0.091913 23:-0.146385 24:-0.137339 25:-0.054305 26:-0.437365 27:0.113383 28:-0.247101 29:0.073171 30:-0.313279 31:0.040647 32:-0.635690 33:0.053088 34:-0.346083 35:0.032762 36:-0.600699
1024.000000 1:-0.678235 2:-0.000549 3:-0.319005 4:-0.032976 5:0.188168 6:-0.184129 7:-0.239180 8:-0.761840 9:0.382327 10:-0.476665 11:-0.247826 12:-0.331336 13:0.295525 14:-0.519556 15:-0.268608 16:-0.293366 17:0.348443 18:-0.390231 19:-0.367537 20:0.113811 21:-0.073298 22:0.239850 23:-0.307383 24:-0.089683 25:0.056954 26:-0.491356 27:0.118802 28:-0.301161 29:-0.022269 30:0.027157 31:-0.077043 32:-0.403836 33:0.003250 34:-0.034637 35:-0.100168 36:-0.352764
581.386198 1:-0.873575 2:-0.548001 3:-0.701357 4:0.003795 5:0.110493 6:-0.425077 7:-0.646925 8:-0.718687 9:0.269890 10:-0.704549 11:-0.591304 12:-0.581732 13:0.321027 14:-0.899421 15:-0.592233 16:-0.557168 17:0.340273 18:-0.889398 19:-0.745575 20:-0.277401 21:-0.534031 22:-0.010341 23:0.072711 24:-0.180327 25:-0.295364 26:-0.929734 27:0.573583 28:-0.604496 29:-0.374337 30:-0.525045 31:0.248416 32:-0.834526 33:-0.384615 34:-0.622975 35:0.327750 36:-0.837072
1024.000000 1:-0.174517 2:-0.120601 3:-0.110860 4:0.771017 5:-0.675140 6:-0.103637 7:-0.066059 8:-0.179534 9:-0.487363 10:-0.425986 11:-0.089130 12:0.258425 13:-0.421289 14:-0.528456 15:-0.074433 16:0.289862 17:-0.439851 18:-0.460991 19:-0.087909 20:0.008221 21:-0.125654 22:0.650219 23:-0.663921 24:0.047769 25:0.025166 26:-0.351738 27:-0.169559 28:-0.401854 29:-0.211029 30:0.533496 31:-0.428024 32:-0.253931 33:-0.176598 34:0.311499 35:-0.423626 36:-0.327337
1024.000000 1:-0.592960 2:-0.275220 3:-0.321267 4:0.196498 5:-0.231036 6:-0.300962 7:-0.243736 8:-0.464787 9:-0.203557 10:-0.538147 11:-0.158696 12:-0.238696 13:-0.154406 14:-0.743475 15:-0.160734 16:-0.246337 17:-0.130595 18:-0.718819 19:-0.305731 20:-0.041895 21:-0.041885 22:0.319414 23:-0.399256 24:-0.086202 25:0.112583 26:-0.549157 27:0.059650 28:-0.422111 29:-0.011665 30:-0.084990 31:-0.161725 32:-0.623831 33:-0.003250 34:-0.161122 35:-0.176487 36:-0.610807
1024.000000 1:-0.299950 2:-0.214216 3:-0.042986 4:0.708694 5:-0.722314 6:-0.305230 7:-0.070615 8:0.189062 9:-0.747020 10:-0.275684 11:-0.008696 12:0.406937 13:-0.608035 14:-0.604193 15:0.001079 16:0.376718 17:-0.590300 18:-0.565899 19:-0.062706 20:0.152506 21:0.068063 22:0.441792 23:-0.453669 24:0.048887 25:0.123179 26:0.147784 27:-0.337213 28:0.121903 29:0.009544 30:0.359381 31:-0.300351 32:-0.263090 33:0.068256 34:0.165832 35:-0.287725 36:-0.300361
1024.000000 1:0.033713 2:-0.210359 3:0.328054 4:0.886603 5:-0.858070 6:-0.422420 7:0.334852 8:0.198608 9:-0.844916 10:-0.509465 11:0.236957 12:0.637109 13:-0.748675 14:-0.595742 15:0.253506 16:0.614187 17:-0.741823 18:-0.557074 19:0.333933 20:-0.016150 21:0.599476 22:0.599687 23:-0.826592 24:-0.438554 25:0.639735 26:0.110875 27:-0.692320 28:-0.485138 29:0.141039 30:0.906516 31:-0.726367 32:-0.281290 33:0.174431 34:0.703937 35:-0.725526 36:-0.267732
1024.000000 1:-0.292514 2:-0.102144 3:-0.244344 4:0.696649 5:-0.501403 6:0.142517 7:-0.020501 8:-0.485079 9:-0.177968 10:-0.507501 11:-0.019565 12:-0.074664 13:-0.202793 14:-0.618501 15:-0.055016 16:-0.012221 17:-0.207972 18:-0.528979 19:0.111911 20:0.145603 21:0.026178 22:0.773867 23:-0.620179 24:0.379089 25:0.364238 26:-0.386765 27:-0.042911 28:-0.290922 29:0.334040 30:0.045781 31:-0.234282 32:-0.504627 33:0.261105 34:0.023896 35:-0.251283 36:-0.418364
-1024.000000 1:-0.658899 2:-0.746123 3:-0.355204 4:0.803884 5:-0.991310 6:-0.848741 7:-0.362187 8:0.171118 9:-0.989160 10:-0.851342 11:-0.221739 12:0.794447 13:-0.985799 14:-0.915601 15:-0.216828 16:0.799589 17:-0.985991 18:-0.914088 19:-0.366937 20:-0.555106 21:0.031414 22:0.583705 23:-0.974855 24:-0.769669 25:0.009272 26:0.250011 27:-0.924296 28:-0.712427 29:-0.147402 30:0.885962 31:-0.936753 32:-0.761386 33:-0.109426 34:0.707402 35:-0.947935 36:-0.759328
-144.171774 1:-0.446207 2:-0.243436 3:-0.223982 4:0.338044 5:-0.170310 6:0.033354 7:0.266515 8:-0.864718 9:0.154994 10:-0.650118 11:0.241304 12:-0.508842 13:0.078529 14:-0.716361 15:0.223301 16:-0.429064 17:0.091014 18:-0.623047 19:1.451845 20:0.332488 21:0.989529 22:-0.068469 23:0.218782 24:0.194723 25:0.978808 26:-0.397444 27:0.314619 28:0.102171 29:1.332980 30:-0.431862 31:0.258588 32:-0.347456 33:1.054171 34:-0.084077 35:0.086449 36:-0.015875
136.520346 1:-0.756073 2:-0.135038 3:-0.364253 4:0.184414 5:0.551291 6:0.686005 7:-0.350797 8:-0.787231 9:1.203604 10:0.072392 11:-0.291304 12:-0.831596 13:1.191006 14:-0.483284 15:-0.298813 16:-0.766466 17:1.237395 18:-0.331323 19:-0.517552 20:0.117195 21:-0.222513 22:0.362710 23:-0.102921 24:0.486230 25:-0.043709 26:-0.500902 27:0.491579 28:0.023016 29:-0.162248 30:-0.617760 31:0.676342 32:-0.496818 33:-0.161430 34:-0.690946 35:0.729373 36:-0.493585
1024.000000 1:-0.769955 2:-0.538089 3:-0.570136 4:0.492783 5:-0.734311 6:-0.593425 7:-0.560364 8:-0.210374 9:-0.646437 10:-0.685486 11:-0.486957 12:0.127654 13:-0.577616 14:-0.852939 15:-0.477886 16:0.149444 17:-0.586391 18:-0.840518 19:-0.646565 20:-0.403211 21:-0.421466 22:0.189390 23:-0.511091 24:-0.509293 25:-0.393377 26:-0.305364 27:-0.326435 28:-0.547320 29:-0.367975 30:0.013270 31:-0.309583 32:-0.773635 33:-0.367281 34:-0.072446 35:-0.324899 36:-0.764736
1024.000000 1:-0.856222 2:-0.599452 3:-0.678733 4:0.285043 5:-0.571502 6:-0.670223 7:-0.635535 8:-0.444465 9:-0.335921 10:-0.727612 11:-0.602174 12:-0.118226 13:-0.319292 14:-0.886481 15:-0.598706 16:-0.123844 17:-0.300132 18:-0.886416 19:-0.791779 20:-0.480372 21:-0.534031 22:0.029387 23:-0.354326 24:-0.594834 25:-0.486093 26:-0.469995 27:-0.110380 28:-0.587735 29:-0.495228 30:-0.119678 31:-0.121467 32:-0.791562 33:-0.477790 34:-0.204593 35:-0.151456 36:-0.798925
1024.000000 1:-0.678731 2:-0.548957 3:-0.416290 4:0.697366 5:-0.891404 6:-0.647565 7:-0.407745 8:0.026096 9:-0.856849 10:-0.678989 11:-0.282609 12:0.456668 13:-0.819672 14:-0.840810 15:-0.283711 16:0.470529 17:-0.820818 18:-0.824082 19:-0.521152 20:-0.346838 21:-0.340314 22:0.414488 23:-0.748618 24:-0.518359 25:-0.202649 26:-0.111411 27:-0.537386 28:-0.516937 29:-0.297985 30:0.342132 31:-0.566534 32:-0.708726 33:-0.284940 34:0.220764 35:-0.584507 36:-0.703516
1024.000000 1:-0.768964 2:-0.705993 3:-0.615385 4:0.388393 5:-0.745240 6:-0.747133 7:-0.617312 8:-0.092551 9:-0.833738 10:-0.773735 11:-0.626087 12:0.424261 13:-0.757139 14:-0.811006 15:-0.615965 16:0.409845 17:-0.747794 18:-0.802125 19:-0.654365 20:-0.488125 21:-0.565445 22:0.260002 23:-0.616009 24:-0.563599 25:-0.539073 26:-0.177369 27:-0.506012 28:-0.581087 29:-0.656416 30:0.424950 31:-0.480757 32:-0.608946 33:-0.659805 34:0.190198 35:-0.420731 36:-0.660746
1024.000000 1:0.096678 2:0.492987 3:0.325792 4:0.470072 5:-0.095691 6:0.406593 7:0.387244 8:-0.380974 9:0.089800 10:-0.034109 11:0.300000 12:0.370444 13:0.022285 14:0.190795 15:0.359223 16:0.156342 17:0.106375 18:0.144655 19:0.743774 20:0.593652 21:0.746073 22:0.638847 23:-0.421301 24:0.464289 25:0.952318 26:-0.178318 27:-0.007352 28:0.050527 29:0.399788 30:0.771817 31:-0.194701 32:0.616752 33:0.542795 34:0.170896 35:-0.049974 36:0.138117
1024.000000 1:-0.409023 2:0.023451 3:-0.099548 4:0.329907 5:-0.017554 6:0.252596 7:-0.022779 8:-0.452324 9:0.044259 10:-0.241066 11:0.276087 12:-0.715664 13:0.237054 14:-0.759986 15:0.266451 16:-0.692233 17:0.249077 18:-0.728504 19:0.510351 20:0.254693 21:0.342932 22:0.705043 23:-0.516936 24:0.425136 25:0.737748 26:-0.412296 27:0.019058 28:-0.237641 29:0.722163 30:-0.172405 31:-0.085498 32:-0.511966 33:0.785482 34:-0.201046 35:-0.135668 36:-0.488431
1024.000000 1:-0.321765 2:-0.146092 3:-0.255656 4:0.575665 5:-0.493752 6:-0.061919 7:-0.132118 8:-0.284835 9:-0.374884 10:-0.445344 11:-0.050000 12:-0.013317 13:-0.301096 14:-0.656274 15:-0.098166 16:0.074544 17:-0.315754 18:-0.558429 19:0.010501 20:0.048902 21:-0.109948 22:0.728807 23:-0.652659 24:0.231857 25:0.210596 26:-0.322395 27:-0.179945 28:-0.361209 29:0.119830 30:0.226696 31:-0.348365 32:-0.479544 33:0.187433 34:0.067750 35:-0.354580 36:-0.508943
-63.672769 1:-0.724343 2:-0.212953 3:-0.359729 4:-0.226840 5:0.269031 6:-0.424773 7:-0.448747 8:-0.352291 9:-0.135674 10:-0.333972 11:-0.358696 12:-0.385947 13:0.200248 14:-0.686045 15:-0.357066 16:-0.364117 17:0.204555 18:-0.642150 19:-0.545155 20:-0.021612 21:-0.070681 22:-0.111394 23:-0.006729 24:-0.301126 25:-0.115232 26:-0.443943 27:0.104797 28:-0.274453 29:-0.170732 30:0.034142 31:-0.049371 32:-0.404887 33:-0.196100 34:-0.015428 35:-0.072988 36:-0.346634
1024.000000 1:-0.791274 2:-0.453860 3:-0.536199 4:0.285561 5:-0.571699 6:-0.639033 7:-0.512528 8:-0.377461 9:-0.468530 10:-0.718033 11:-0.478261 12:0.008682 13:-0.372428 14:-0.782916 15:-0.477886 16:0.006789 17:-0.355353 18:-0.761480 19:-0.685569 20:-0.332753 21:-0.476440 22:0.341748 23:-0.627081 24:-0.435446 25:-0.192053 26:-0.414407 27:-0.341463 28:-0.664118 29:-0.376458 30:0.249573 31:-0.400164 32:-0.624171 33:-0.365114 34:0.168791 35:-0.446687 36:-0.608838
1024.000000 1:-0.657412 2:-0.272091 3:-0.190045 4:-0.079596 5:-0.152182 6:-0.561297 7:-0.307517 8:-0.431704 9:-0.239105 10:-0.536746 11:-0.252174 12:-0.003660 13:-0.220070 14:-0.610423 15:-0.175836 16:-0.111518 17:-0.214830 18:-0.666426 19:-0.373537 20:-0.116525 21:0.099476 22:0.147192 23:-0.468834 24:-0.455089 25:-0.054305 26:-0.228761 27:-0.255079 28:-0.336667 29:-0.117709 30:0.203184 31:-0.252004 32:-0.425250 33:-0.079090 34:0.064546 35:-0.303372 36:-0.493280
1024.000000 1:-0.622707 2:-0.057053 3:-0.167421 4:-0.263044 5:0.346144 6:-0.323777 7:-0.248292 8:-0.425266 9:0.029129 10:-0.249496 11:-0.165217 12:-0.446412 13:0.355899 14:-0.564148 15:-0.160734 16:-0.440049 17:0.371949 18:-0.507378 19:-0.271527 20:0.227594 21:0.285340 22:0.194685 23:-0.211519 24:0.000729 25:0.303311 26:-0.362917 27:0.116711 28:-0.097849 29:0.094380 30:0.204162 31:-0.041125 32:-0.088977 33:0.174431 34:0.037983 35:-0.051669 36:-0.139067
1024.000000 1:-0.790778 2:-0.509498 3:-0.563348 4:-0.122407 5:0.067083 6:-0.565211 7:-0.642369 8:-0.271621 9:-0.381698 10:-0.495069 11:-0.467391 12:-0.259916 13:-0.225067 14:-0.883564 15:-0.462783 16:-0.263917 17:-0.208256 18:-0.883477 19:-0.716172 20:-0.301049 21:-0.295812 22:-0.332683 23:0.047168 24:-0.640799 25:-0.570861 26:-0.206162 27:-0.119446 28:-0.199279 29:-0.378579 30:-0.306004 31:0.017944 32:-0.802315 33:-0.345612 34:-0.359625 35:-0.030249 36:-0.805171
502.146510 1:0.404561 2:0.441343 3:0.861991 4:-0.445245 5:0.218588 6:-0.461849 7:0.676538 8:0.779801 9:-0.684367 10:0.834092 11:0.723913 12:-0.756665 13:0.410206 14:-0.620262 15:0.579288 16:-0.055421 17:0.176968 18:-0.046074 19:0.549355 20:0.055273 21:0.374346 22:0.293586 23:-0.534259 24:-0.328297 25:0.390728 26:0.010024 27:-0.464539 28:-0.273146 29:0.158006 30:0.883863 31:-0.634344 32:-0.113114 33:0.284940 34:0.311152 35:-0.496206 36:-0.388261
109.397945 1:-0.446207 2:0.512710 3:0.257919 4:-0.187440 5:0.824637 6:0.433125 7:0.343964 8:-0.943801 9:1.099765 10:-0.030095 11:0.221739 12:-0.493577 13:1.050958 14:0.070033 15:0.268608 16:-0.448361 17:0.999357 18:0.234561 19:-0.119112 20:0.706055 21:0.287958 22:0.088029 23:0.292378 24:0.528123 25:0.613245 26:-0.906728 27:0.973397 28:-0.043494 29:0.232238 30:0.051448 31:0.442317 32:0.388669 33:0.200433 34:-0.014398 35:0.467180 36:0.530072
104.259824 1:-0.465047 2:0.424749 3:0.097285 4:-0.180672 5:0.645876 6:0.202095 7:0.097950 8:-0.683446 9:0.653586 10:-0.024243 11:-0.150000 12:0.191144 13:0.494929 14:0.454132 15:0.059331 16:-0.152268 17:0.546455 18:0.152411 19:0.158116 20:0.895567 21:0.609948 22:0.418930 23:0.082313 24:0.946500 25:0.788080 26:-0.638887 27:0.931100 28:0.344667 29:0.406151 30:0.185403 31:0.502442 32:0.759666 33:0.473456 34:-0.082855 35:0.553554 36:0.583496
1024.000000 1:-0.386713 2:0.054952 3:0.027149 4:-0.001437 5:-0.166460 6:-0.437842 7:0.025057 8:-0.496290 9:-0.142556 10:-0.483195 11:-0.195652 12:0.690890 13:-0.384903 14:0.065602 15:-0.173679 16:0.683431 17:-0.387906 18:0.203610 19:-0.183918 20:0.174250 21:0.052356 22:0.262595 23:-0.393584 24:-0.171867 25:0.176159 26:-0.319925 27:-0.121844 28:-0.299209 29:-0.223754 30:0.844626 31:-0.397702 32:0.322109 33:-0.204767 34:0.680407 35:-0.437110 36:0.325046
1024.000000 1:-0.001983 2:0.290804 3:0.244344 4:0.282839 5:-0.096291 6:0.082947 7:0.182232 8:-0.261538 9:0.025231 10:0.085497 11:0.330435 12:0.001110 13:0.023634 14:-0.275773 15:0.326861 16:-0.002516 17:0.040634 18:-0.171460 19:0.411941 20:0.399944 21:0.507854 22:0.288992 23:-0.307011 24:0.028413 25:0.372185 26:0.312755 27:-0.291326 28:0.448322 29:0.609756 30:0.005868 31:-0.113289 32:-0.364491 33:0.599133 34:-0.068769 35:-0.109043 36:-0.309344
1024.000000 1:-0.345067 2:-0.294825 3:-0.253394 4:0.498947 5:-0.641262 6:-0.434504 7:-0.271071 8:-0.047173 9:-0.625620 10:-0.415972 11:-0.154348 12:0.177711 13:-0.530570 14:-0.724613 15:-0.152104 16:0.209751 17:-0.537889 18:-0.680553 19:-0.284128 20:-0.265500 21:-0.259162 22:0.522730 23:-0.758636 24:-0.369672 25:-0.192053 26:0.081855 27:-0.617782 28:-0.370414 29:-0.223754 30:0.398779 31:-0.589918 32:-0.667815 33:-0.241603 34:0.298255 35:-0.612537 36:-0.642411
1024.000000 1:-0.815072 2:-0.661989 3:-0.561086 4:0.297957 5:-0.528920 6:-0.572879 7:-0.592255 8:-0.149643 9:-0.598469 10:-0.533671 11:-0.532609 12:0.135149 13:-0.445989 14:-0.746724 15:-0.525351 16:0.140939 17:-0.448209 18:-0.725588 19:-0.689769 20:-0.386601 21:-0.395288 22:0.403689 23:-0.587098 24:-0.255279 25:-0.358940 26:-0.046745 27:-0.433864 28:-0.295481 29:-0.444327 30:0.456442 31:-0.470079 32:-0.476268 33:-0.440953 34:0.358523 35:-0.530751 36:-0.475458
1024.000000 1:-0.155181 2:-0.148434 3:0.072398 4:0.551321 5:-0.653996 6:-0.392744 7:0.011390 8:0.076919 9:-0.681159 10:-0.337086 11:0.071739 12:0.184209 13:-0.478957 14:-0.646204 15:0.059331 16:0.200390 17:-0.470278 18:-0.586103 19:0.555956 20:0.060922 21:0.523560 22:0.425615 23:-0.641086 24:-0.314774 25:0.348345 26:0.124797 27:-0.449031 28:-0.094235 29:0.344645 30:0.530093 31:-0.525288 32:-0.364391 33:0.373781 34:0.406933 35:-0.545668 36:-0.334513
-1024.000000 1:-0.914229 2:-0.628590 3:-0.742081 4:-0.053702 5:0.126223 6:-0.552977 7:-0.697039 8:-0.735272 9:0.238617 10:-0.785075 11:-0.686957 12:-0.545947 13:0.395723 14:-0.909711 15:-0.678533 16:-0.527757 17:0.383250 18:-0.913559 19:-0.871587 20:-0.555211 21:-0.664921 22:0.039840 23:-0.242787 24:-0.506882 25:-0.531126 26:-0.803270 27:0.217862 28:-0.779892 29:-0.611877 30:-0.240070 31:0.061039 32:-0.843954 33:-0.616468 34:-0.326076 35:0.072743 36:-0.845817
-1024.000000 1:-0.592464 2:0.014285 3:-0.212670 4:0.030210 5:0.277781 6:0.064745 7:-0.205011 8:-0.616597 9:0.523084 10:-0.106384 11:-0.006522 12:-0.895614 13:0.729390 14:-0.683039 15:-0.048544 16:-0.801378 17:0.757193 18:-0.574413 19:0.026103 20:0.421654 21:0.397906 22:0.150895 23:-0.005021 24:0.234090 25:0.406623 26:-0.321248 27:0.384932 28:0.263079 29:0.533404 30:-0.417538 31:0.383750 32:-0.303658 33:0.419285 34:-0.357384 35:0.359933 36:-0.171283
-1024.000000 1:-0.710461 2:-0.696283 3:-0.384615 4:0.346628 5:-0.788004 6:-0.829466 7:-0.448747 8:-0.104785 9:-0.860635 10:-0.832187 11:-0.367391 12:0.340767 13:-0.794378 14:-0.890285 15:-0.361381 16:0.309093 17:-0.775988 18:-0.892770 19:-0.567957 20:-0.403073 21:-0.287958 22:0.166040 23:-0.499478 24:-0.509809 25:-0.271523 26:-0.169940 27:-0.478634 28:-0.523344 29:-0.221633 30:0.259160 31:-0.497737 32:-0.693015 33:-0.224269 34:-0.045986 35:-0.373736 36:-0.742996
431.462571 1:-0.842340 2:-0.486969 3:-0.601810 4:0.039729 5:-0.174780 6:-0.571374 7:-0.669704 8:-0.452046 9:-0.142090 10:-0.593427 11:-0.621739 12:-0.348548 13:0.122183 14:-0.833744 15:-0.615965 16:-0.299795 17:0.088000 18:-0.810067 19:-0.741974 20:-0.419769 21:-0.455497 22:-0.046894 23:-0.286747 24:-0.611310 25:-0.472848 26:-0.589648 27:0.017222 28:-0.636948 29:-0.516437 30:0.084600 31:-0.264434 32:-0.717117 33:-0.538462 34:-0.160145 35:-0.119419 36:-0.753003
1024.000000 1:0.186911 2:0.522008 3:0.522624 4:1.007745 5:-0.456215 6:0.705865 7:0.562642 8:-0.064456 9:-0.215230 10:0.123635 11:0.456522 12:0.338327 13:-0.050023 14:0.059084 15:0.462783 16:0.208921 17:0.030507 18:0.129088 19:0.534353 20:0.719103 21:0.767016 22:0.829717 23:-0.496265 24:0.687495 25:0.888742 26:-0.265894 27:0.116414 28:0.069137 29:0.454931 30:0.592661 31:-0.126457 32:0.435496 33:0.486457 34:0.311512 35:-0.064479 36:0.360183
-1024.000000 1:-0.710461 2:-0.696283 3:-0.384615 4:0.346628 5:-0.788004 6:-0.829466 7:-0.448747 8:-0.104785 9:-0.860635 10:-0.832187 11:-0.367391 12:0.340767 13:-0.794378 14:-0.890285 15:-0.361381 16:0.309093 17:-0.775988 18:-0.892770 19:-0.567957 20:-0.403073 21:-0.287958 22:0.166040 23:-0.499478 24:-0.509809 25:-0.271523 26:-0.169940 27:-0.478634 28:-0.523344 29:-0.221633 30:0.259160 31:-0.497737 32:-0.693015 33:-0.224269 34:-0.045986 35:-0.373736 36:-0.742996
1024.000000 1:-0.093208 2:-0.390846 3:-0.133484 4:0.667321 5:-0.824193 6:-0.562377 7:-0.038724 8:-0.075699 9:-0.788036 10:-0.703748 11:0.156522 12:0.336894 13:-0.750241 14:-0.821909 15:0.149946 16:0.369579 17:-0.757234 18:-0.797675 19:0.230123 20:-0.390488 21:-0.191099 22:0.671867 23:-0.895593 24:-0.446614 25:0.056954 26:0.070648 27:-0.788027 28:-0.653129 29:0.062566 30:0.558220 31:-0.780301 32:-0.760769 33:0.007584 34:0.466687 35:-0.804322 36:-0.725620
1024.000000 1:-0.705503 2:-0.764568 3:-0.531674 4:0.563578 5:-0.911304 6:-0.824689 7:-0.473804 8:-0.068942 9:-0.909518 10:-0.871311 11:-0.452174 12:0.516211 13:-0.896370 14:-0.905341 15:-0.458468 16:0.524565 17:-0.893659 18:-0.897491 19:-0.517552 20:-0.661619 21:-0.379581 22:0.472930 23:-0.911596 24:-0.738071 25:-0.303311 26:0.038468 27:-0.844569 28:-0.755957 29:-0.331919 30:0.697416 31:-0.876279 32:-0.816896 33:-0.319610 34:0.509562 35:-0.873018 36:-0.816066
1024.000000 1:-0.348042 2:-0.477233 3:-0.122172 4:0.934048 5:-0.941164 6:-0.558622 7:-0.109339 8:0.088993 9:-0.888847 10:-0.695028 11:-0.121739 12:0.640456 13:-0.853109 14:-0.756352 15:-0.162891 16:0.733407 17:-0.862679 18:-0.663206 19:-0.098710 20:-0.205653 21:0.104712 22:0.642086 23:-0.850137 24:-0.409194 25:0.033113 26:0.258025 27:-0.755466 28:-0.381270 29:-0.147402 30:0.618195 31:-0.643912 32:-0.493984 33:-0.163597 34:0.808683 35:-0.791683 36:-0.250191
1024.000000 1:-0.752603 2:-0.775900 3:-0.567873 4:0.505313 5:-0.919030 6:-0.889988 7:-0.569476 8:-0.048466 9:-0.937102 10:-0.894640 11:-0.554348 12:0.492305 13:-0.899915 14:-0.926477 15:-0.542611 16:0.486668 17:-0.899416 18:-0.934958 19:-0.618362 20:-0.698382 21:-0.465969 22:0.393037 23:-0.915962 24:-0.835024 25:-0.443709 26:0.085552 27:-0.911534 28:-0.808200 29:-0.495228 30:0.718596 31:-0.899407 32:-0.847286 33:-0.486457 34:0.452103 35:-0.864854 36:-0.872851
1024.000000 1:-0.752603 2:-0.775900 3:-0.567873 4:0.505313 5:-0.919030 6:-0.889988 7:-0.569476 8:-0.048466 9:-0.937102 10:-0.894640 11:-0.554348 12:0.492305 13:-0.899915 14:-0.926477 15:-0.542611 16:0.486668 17:-0.899416 18:-0.934958 19:-0.618362 20:-0.698382 21:-0.465969 22:0.393037 23:-0.915962 24:-0.835024 25:-0.443709 26:0.085552 27:-0.911534 28:-0.808200 29:-0.495228 30:0.718596 31:-0.899407 32:-0.847286 33:-0.486457 34:0.452103 35:-0.864854 36:-0.872851
1024.000000 1:-0.528508 2:-0.013328 3:-0.266968 4:0.156448 5:-0.130123 6:-0.227297 7:-0.232346 8:-0.413716 9:-0.127631 10:-0.386825 11:-0.382609 12:0.445752 13:-0.232014 14:-0.086457 15:-0.361381 16:0.398974 17:-0.217015 18:-0.018028 19:-0.299730 20:0.052158 21:-0.094241 22:0.123254 23:-0.351149 24:-0.352443 25:0.014570 26:-0.371068 27:-0.172066 28:-0.429807 29:-0.334040 30:0.686556 31:-0.388133 32:0.044083 33:-0.300108 34:0.481333 35:-0.411849 36:-0.033681
720.110497 1:0.867129 2:0.777853 3:0.904977 4:0.557202 5:0.063596 6:0.826147 7:0.929385 8:0.170057 9:0.006232 10:0.898805 11:0.960870 12:-0.777546 13:0.835665 14:-0.304041 15:0.956850 16:-0.786811 17:0.869376 18:-0.213936 19:0.935194 20:0.550843 21:0.717277 22:0.652595 23:-0.434627 24:0.465572 25:0.920530 26:0.154815 27:-0.178730 28:0.320042 29:0.707317 30:0.077723 31:-0.039808 32:-0.169334 33:0.694475 34:-0.084054 35:-0.009837 36:-0.186842
-1024.000000 1:-0.805652 2:-0.690423 3:-0.576923 4:0.304669 5:-0.725668 6:-0.810012 7:-0.592255 8:-0.254570 9:-0.718688 10:-0.824484 11:-0.489130 12:0.125647 13:-0.637340 14:-0.900632 15:-0.484358 16:0.113806 17:-0.633158 18:-0.910963 19:-0.658566 20:-0.475412 21:-0.348168 22:0.269460 23:-0.687701 24:-0.628860 25:-0.295364 26:-0.262137 27:-0.503530 28:-0.662617 29:-0.378579 30:0.309404 31:-0.483445 32:-0.658500 33:-0.278440 34:0.086119 35:-0.515636 36:-0.767628
1024.000000 1:-0.790778 2:-0.626697 3:-0.572398 4:0.519064 5:-0.769666 6:-0.616618 7:-0.594533 8:0.068501 9:-0.836845 10:-0.544962 11:-0.608696 12:0.616091 13:-0.768326 14:-0.629922 15:-0.592233 16:0.258463 17:-0.595573 18:-0.773723 19:-0.697570 20:-0.565020 21:-0.473822 22:0.333384 23:-0.753099 24:-0.647146 25:-0.464901 26:-0.188603 27:-0.553110 28:-0.642152 29:-0.580064 30:0.586355 31:-0.648845 32:-0.603855 33:-0.562297 34:0.513079 35:-0.734646 36:-0.598717
1024.000000 1:-0.156173 2:-0.375155 3:-0.142534 4:0.508206 5:-0.697134 6:-0.516714 7:-0.100228 8:-0.115165 9:-0.720642 10:-0.650737 11:-0.043478 12:0.255070 13:-0.642255 14:-0.769494 15:-0.050701 16:0.225342 17:-0.622814 18:-0.755841 19:0.527153 20:-0.216754 21:0.306283 22:0.586523 23:-0.801918 24:-0.392608 25:0.390728 26:-0.053947 27:-0.630866 28:-0.568092 29:0.257688 30:0.531106 31:-0.680192 32:-0.619462 33:0.287107 34:0.343226 35:-0.679230 36:-0.638774
1024.000000 1:0.482895 2:0.034528 3:0.656109 4:0.625110 5:-0.669252 6:-0.342521 7:0.774488 8:0.467445 9:-0.826533 10:-0.140276 11:0.534783 12:0.387508 13:-0.501371 14:-0.468844 15:0.486516 16:0.668924 17:-0.594485 18:-0.227235 19:0.925593 20:0.155434 21:0.515707 22:0.431867 23:-0.591772 24:-0.218016 25:0.849007 26:0.231311 27:-0.570428 28:-0.160924 29:0.334040 30:0.579404 31:-0.480096 32:-0.226500 33:0.274106 34:0.465773 35:-0.493310 36:-0.160134
-1024.000000 1:-0.613783 2:-0.162792 3:-0.341629 4:0.223351 5:-0.087861 6:-0.076501 7:-0.246014 8:-0.428127 9:-0.156817 10:-0.440557 11:-0.121739 12:-0.344831 13:0.081197 14:-0.653835 15:-0.143474 16:-0.324646 17:0.100176 18:-0.599644 19:-0.056106 20:0.385343 21:0.091623 22:0.398511 23:-0.040795 24:0.683745 25:0.517881 26:-0.582989 27:0.508049 28:-0.004547 29:0.522800 30:-0.166613 31:0.214244 32:-0.183479 33:0.555796 34:-0.346395 35:0.254473 36:-0.251176
-971.408715 1:-0.905305 2:-0.649613 3:-0.760181 4:0.000946 5:0.204642 6:-0.401795 7:-0.810934 8:-0.245902 9:-0.133891 10:-0.210764 11:-0.771739 12:0.077623 13:-0.000583 14:-0.551002 15:-0.756203 16:0.010000 17:0.065394 18:-0.552295 19:-0.783378 20:-0.289347 21:-0.552356 22:-0.327056 23:0.699311 24:-0.199641 25:-0.565563 26:-0.332990 27:0.370913 28:0.074856 29:-0.607635 30:0.021370 31:0.318708 32:-0.250361 33:-0.592633 34:-0.155072 35:0.369477 36:-0.304048
1024.000000 1:-0.369360 2:-0.003965 3:-0.205882 4:0.779371 5:-0.467133 6:0.367028 7:-0.050114 8:-0.429034 9:-0.077923 10:-0.332860 11:0.030435 12:-0.223802 13:-0.047873 14:-0.612687 15:0.035599 16:-0.407782 17:0.068569 18:-0.660493 19:0.119112 20:0.123656 21:0.167539 22:0.689698 23:-0.584774 24:0.264075 25:0.308609 26:-0.329793 27:-0.045022 28:-0.222250 29:0.272534 30:-0.024743 31:-0.162793 32:-0.505391 33:0.284940 34:-0.095230 35:-0.182576 36:-0.481107
1024.000000 1:-0.352504 2:-0.028888 3:-0.221719 4:0.906632 5:-0.566817 6:0.415761 7:-0.052392 8:-0.500277 9:-0.047483 10:-0.409627 11:-0.004348 12:-0.231044 13:-0.066743 14:-0.640484 15:-0.001079 16:-0.326103 17:-0.002155 18:-0.648936 19:0.161716 20:0.151587 21:0.185864 22:0.716115 23:-0.583444 24:0.318296 25:0.417219 26:-0.398357 27:0.013962 28:-0.244270 29:0.348887 30:-0.084976 31:-0.135180 32:-0.526122 33:0.328278 34:-0.159087 35:-0.139194 36:-0.501703
1024.000000 1:-0.605850 2:-0.332197 3:-0.536199 4:0.628616 5:-0.590837 6:-0.109334 7:-0.416856 8:-0.411392 9:-0.327635 10:-0.613175 11:-0.393478 12:-0.000226 13:-0.355590 14:-0.755190 15:-0.395901 16:0.014581 17:-0.344155 18:-0.717697 19:-0.449745 20:-0.332939 21:-0.395288 22:0.653333 23:-0.818458 24:-0.255847 25:-0.316556 26:-0.110096 27:-0.558071 28:-0.542346 29:-0.414634 30:0.337042 31:-0.559588 32:-0.731188 33:-0.414951 34:0.206656 35:-0.562258 36:-0.720249
1024.000000 1:-0.495786 2:-0.313106 3:-0.423077 4:0.840485 5:-0.716033 6:0.001032 7:-0.364465 8:-0.341809 9:-0.358802 10:-0.535171 11:-0.280435 12:-0.115696 13:-0.329756 14:-0.801271 15:-0.281553 16:-0.089968 17:-0.327349 18:-0.771633 19:-0.366337 20:-0.147292 21:-0.308901 22:0.617491 23:-0.669284 24:-0.002492 25:-0.274172 26:-0.214941 27:-0.214554 28:-0.286811 29:-0.310710 30:0.016250 31:-0.240630 32:-0.684044 33:-0.310943 34:-0.068514 35:-0.242699 36:-0.657605
1024.000000 1:-0.383242 2:-0.062345 3:-0.237557 4:0.784340 5:-0.515049 6:0.284613 7:-0.015945 8:-0.481483 9:-0.162076 10:-0.487060 11:0.015217 12:-0.282575 13:-0.090485 14:-0.698116 15:-0.003236 16:-0.257587 17:-0.081976 18:-0.651537 19:0.015902 20:0.064137 21:0.031414 22:0.717304 23:-0.638156 24:0.217603 25:0.229139 26:-0.298298 27:-0.184753 28:-0.334693 29:0.143160 30:0.086939 31:-0.292878 32:-0.559778 33:0.172264 34:-0.024789 35:-0.307138 36:-0.564033
301.508699 1:-0.492811 2:0.004170 3:-0.291855 4:0.543167 5:-0.188806 6:0.405258 7:0.036446 8:-0.739666 9:0.270886 10:-0.454340 11:0.228261 12:-0.683089 13:0.272954 14:-0.723951 15:0.216828 16:-0.650975 17:0.284456 18:-0.679044 19:0.245725 20:0.307580 21:0.227749 22:0.742132 23:-0.479954 24:0.599871 25:0.796026 26:-0.653181 27:0.239025 28:-0.317336 29:0.804878 30:-0.223178 31:-0.026713 32:-0.489814 33:0.906826 34:-0.323286 35:-0.046824 36:-0.515496
1024.000000 1:-0.046604 2:-0.251279 3:0.088235 4:1.156023 5:-0.913929 6:-0.211403 7:0.236902 8:0.110049 9:-0.825502 10:-0.569714 11:0.186957 12:0.697449 13:-0.779140 14:-0.592199 15:0.221143 16:0.571624 17:-0.745067 18:-0.604761 19:0.243324 20:0.046522 21:0.306283 22:0.925154 23:-0.852885 24:0.014249 25:0.557616 26:-0.260679 27:-0.393169 28:-0.502236 29:0.274655 30:0.519630 31:-0.539998 32:-0.405568 33:0.245937 34:0.230991 35:-0.473174 36:-0.461464
1024.000000 1:-0.007437 2:-0.281890 3:0.031674 4:1.083727 5:-0.906574 6:-0.273980 7:0.216401 8:0.073876 9:-0.816693 10:-0.594181 11:0.195652 12:0.522169 13:-0.741961 14:-0.680689 15:0.195254 16:0.648324 17:-0.781641 18:-0.595686 19:0.265527 20:-0.021687 21:0.227749 22:0.821181 23:-0.829206 24:-0.087574 25:0.422517 26:-0.165909 27:-0.453925 28:-0.470727 29:0.172853 30:0.474872 31:-0.549877 32:-0.480568 33:0.200433 34:0.382780 35:-0.591502 36:-0.455951
1024.000000 1:-0.013386 2:-0.285241 3:0.047511 4:1.087816 5:-0.908134 6:-0.277284 7:0.202733 8:0.047501 9:-0.807717 10:-0.607640 11:0.156522 12:0.504040 13:-0.719485 14:-0.664142 15:0.175836 16:0.635376 17:-0.775729 18:-0.597124 19:0.306931 20:-0.009466 21:0.285340 22:0.912529 23:-0.871074 24:-0.058780 25:0.501987 26:-0.234735 27:-0.431730 28:-0.518531 29:0.117709 30:0.614632 31:-0.554001 32:-0.323386 33:0.256771 34:0.347340 35:-0.580402 36:-0.479056
1024.000000 1:-0.687655 2:-0.548014 3:-0.407240 4:0.279099 5:-0.610087 6:-0.675651 7:-0.430524 8:-0.246840 9:-0.646543 10:-0.723217 11:-0.367391 12:0.108628 13:-0.539255 14:-0.814238 15:-0.372168 16:0.119952 17:-0.525961 18:-0.785964 19:-0.499550 20:-0.251829 21:-0.206806 22:0.169859 23:-0.421626 24:-0.388337 25:-0.125828 26:-0.364036 27:-0.231005 28:-0.493902 29:-0.191941 30:0.023243 31:-0.244904 32:-0.644627 33:-0.263272 34:0.128939 35:-0.341214 36:-0.498571
1024.000000 1:-0.092216 2:0.357405 3:0.101810 4:0.587757 5:-0.147667 6:0.545999 7:0.328018 8:-0.443320 9:0.096347 10:-0.132835 11:0.504348 12:-0.201709 13:0.119213 14:-0.378057 15:0.477886 16:-0.179793 17:0.133619 18:-0.269599 19:0.292529 20:0.232779 21:0.125654 22:0.731796 23:-0.556805 24:0.419251 25:0.374834 26:-0.305561 27:-0.021698 28:-0.160433 29:0.423118 30:-0.011064 31:-0.164823 32:-0.470404 33:0.501625 34:-0.135543 35:-0.173335 36:-0.488187
-153.394016 1:-0.883490 2:-0.675443 3:-0.667421 4:0.024116 5:-0.316961 6:-0.755465 7:-0.703872 8:-0.479434 9:-0.296162 10:-0.774589 11:-0.628261 12:-0.249806 13:-0.167984 14:-0.908272 15:-0.628910 16:-0.257107 17:-0.133130 18:-0.909665 19:-0.806781 20:-0.514718 21:-0.560209 22:-0.076130 23:-0.210036 24:-0.617055 25:-0.578808 26:-0.424746 27:-0.176059 28:-0.610558 29:-0.529162 30:-0.242381 31:-0.044256 32:-0.865542 33:-0.542795 34:-0.298407 35:-0.055099 36:-0.857864
1024.000000 1:-0.815072 2:-0.661989 3:-0.561086 4:0.297957 5:-0.528920 6:-0.572879 7:-0.592255 8:-0.149643 9:-0.598469 10:-0.533671 11:-0.532609 12:0.135149 13:-0.445989 14:-0.746724 15:-0.525351 16:0.140939 17:-0.448209 18:-0.725588 19:-0.689769 20:-0.386601 21:-0.395288 22:0.403689 23:-0.587098 24:-0.255279 25:-0.358940 26:-0.046745 27:-0.433864 28:-0.295481 29:-0.444327 30:0.456442 31:-0.470079 32:-0.476268 33:-0.440953 34:0.358523 35:-0.530751 36:-0.475458
1024.000000 1:-0.815072 2:-0.661989 3:-0.561086 4:0.297957 5:-0.528920 6:-0.572879 7:-0.592255 8:-0.149643 9:-0.598469 10:-0.533671 11:-0.532609 12:0.135149 13:-0.445989 14:-0.746724 15:-0.525351 16:0.140939 17:-0.448209 18:-0.725588 19:-0.689769 20:-0.386601 21:-0.395288 22:0.403689 23:-0.587098 24:-0.255279 25:-0.358940 26:-0.046745 27:-0.433864 28:-0.295481 29:-0.444327 30:0.456442 31:-0.470079 32:-0.476268 33:-0.440953 34:0.358523 35:-0.530751 36:-0.475458
-1021.339238 1:-0.948934 2:-0.899022 3:-0.798643 4:-0.166968 5:-0.173963 6:-0.950331 7:-0.829157 8:-0.538362 9:-0.313103 10:-0.929785 11:-0.815217 12:-0.160918 13:-0.196150 14:-0.963066 15:-0.814455 16:-0.168745 17:-0.153429 18:-0.973489 19:-0.907591 20:-0.739364 21:-0.738220 22:-0.178919 23:-0.154050 24:-0.812348 25:-0.750993 26:-0.425244 27:-0.231858 28:-0.723884 29:-0.753977 30:-0.021681 31:-0.104766 32:-0.855517 33:-0.757313 34:-0.159217 35:-0.062460 36:-0.867655
-1002.392878 1:-0.948934 2:-0.899022 3:-0.798643 4:-0.166968 5:-0.173963 6:-0.950331 7:-0.829157 8:-0.538362 9:-0.313103 10:-0.929785 11:-0.815217 12:-0.160918 13:-0.196150 14:-0.963066 15:-0.814455 16:-0.168745 17:-0.153429 18:-0.973489 19:-0.907591 20:-0.739364 21:-0.738220 22:-0.178919 23:-0.154050 24:-0.812348 25:-0.750993 26:-0.425244 27:-0.231858 28:-0.723884 29:-0.753977 30:-0.021681 31:-0.104766 32:-0.855517 33:-0.757313 34:-0.159217 35:-0.062460 36:-0.867655
1024.000000 1:0.355478 2:-0.266652 3:0.454751 4:0.612782 5:-0.762033 6:-0.524402 7:0.296128 8:-0.076650 9:-0.710967 10:-0.597393 11:0.486957 12:0.318204 13:-0.663663 14:-0.726447 15:0.458468 16:0.356148 17:-0.669656 18:-0.679234 19:0.152115 20:-0.229645 21:-0.041885 22:0.704999 23:-0.831730 24:-0.253662 25:0.125828 26:0.037690 27:-0.652396 28:-0.492885 29:0.064687 30:0.484406 31:-0.665459 32:-0.655529 33:0.046587 34:0.402329 35:-0.690705 36:-0.606437
-1024.000000 1:-0.775409 2:-0.655362 3:-0.457014 4:0.342531 5:-0.539040 6:-0.507314 7:-0.343964 8:-0.416689 9:-0.409734 10:-0.682773 11:-0.363043 12:0.080058 13:-0.405709 14:-0.721372 15:-0.363538 16:0.081758 17:-0.392235 18:-0.686776 19:-0.610561 20:-0.198738 21:-0.403141 22:0.575312 23:-0.471162 24:0.334244 25:-0.284768 26:-0.413851 27:0.354885 28:-0.015476 29:-0.427359 30:0.365645 31:-0.105735 32:-0.075640 33:-0.404117 34:0.164041 35:-0.078015 36:-0.125193
1024.000000 1:-0.881011 2:-0.705914 3:-0.651584 4:0.108636 5:-0.494075 6:-0.802180 7:-0.690205 8:-0.368141 9:-0.530545 10:-0.804369 11:-0.615217 12:-0.100824 13:-0.410926 14:-0.929632 15:-0.607335 16:-0.081389 17:-0.417558 18:-0.931271 19:-0.845185 20:-0.594651 21:-0.717277 22:0.193694 23:-0.564823 24:-0.635737 25:-0.660927 26:-0.315417 27:-0.359576 28:-0.645411 29:-0.594910 30:0.073247 31:-0.422730 32:-0.904509 33:-0.594800 34:-0.022475 35:-0.434238 36:-0.897998
129.155561 1:-0.689638 2:-0.046308 3:-0.307692 4:-0.127567 5:0.561315 6:0.054957 7:-0.218679 8:-0.969586 9:0.886338 10:-0.422733 11:-0.154348 12:-0.720730 13:0.732243 14:-0.578627 15:-0.165049 16:-0.638168 17:0.707974 18:-0.477968 19:-0.450345 20:0.198979 21:-0.183246 22:0.307051 23:-0.080315 24:0.395090 25:0.218543 26:-1.044179 27:0.852031 28:-0.395086 29:0.043478 30:-0.771314 31:0.609344 32:-0.628577 33:0.053088 34:-0.672445 35:0.508748 36:-0.559939
-349.334646 1:0.155181 2:0.924645 3:0.518100 4:0.574616 5:0.192585 6:1.087575 7:0.574032 8:-0.544208 9:0.636077 10:0.285499 11:0.447826 12:0.126396 13:0.596481 14:0.561325 15:0.441208 16:0.142158 17:0.607136 18:0.829776 19:0.408341 20:0.889671 21:0.672775 22:0.720296 23:-0.300162 24:0.892925 25:0.745695 26:-0.593913 27:0.620208 28:0.109863 29:0.372216 30:0.385055 31:0.192686 32:0.621615 33:0.388949 34:0.268430 35:0.165192 36:0.666025
1024.000000 1:-0.401091 2:-0.417438 3:-0.117647 4:0.303534 5:-0.595369 6:-0.603381 7:-0.223235 8:-0.111155 9:-0.666513 10:-0.569388 11:-0.173913 12:0.342925 13:-0.611621 14:-0.674407 15:-0.096009 16:0.245340 17:-0.575249 18:-0.685259 19:-0.242124 20:0.018605 21:-0.023560 22:0.305590 23:-0.375602 24:-0.072481 25:0.017219 26:0.180890 27:-0.434253 28:0.039109 29:-0.145281 30:0.426889 31:-0.333091 32:-0.245290 33:-0.109426 34:0.203711 35:-0.303469 36:-0.298517
1024.000000 1:-0.619236 2:-0.792054 3:-0.606335 4:0.404089 5:-0.857329 6:-0.883324 7:-0.592255 8:-0.170638 9:-0.862735 10:-0.898868 11:-0.580435 12:0.382365 13:-0.843274 14:-0.930017 15:-0.570658 16:0.392237 17:-0.845575 18:-0.932785 19:-0.334533 20:-0.607415 21:-0.437173 22:0.374743 23:-0.843464 24:-0.735262 25:-0.411921 26:0.003681 27:-0.799387 28:-0.720880 29:-0.480382 30:0.644016 31:-0.822782 32:-0.791599 33:-0.466956 34:0.468089 35:-0.826591 36:-0.796392
1024.000000 1:-0.881011 2:-0.705914 3:-0.651584 4:0.108636 5:-0.494075 6:-0.802180 7:-0.690205 8:-0.368141 9:-0.530545 10:-0.804369 11:-0.615217 12:-0.100824 13:-0.410926 14:-0.929632 15:-0.607335 16:-0.081389 17:-0.417558 18:-0.931271 19:-0.845185 20:-0.594651 21:-0.717277 22:0.193694 23:-0.564823 24:-0.635737 25:-0.660927 26:-0.315417 27:-0.359576 28:-0.645411 29:-0.594910 30:0.073247 31:-0.422730 32:-0.904509 33:-0.594800 34:-0.022475 35:-0.434238 36:-0.897998
-1024.000000 1:-0.556272 2:-0.492446 3:-0.135747 4:0.896834 5:-0.941149 6:-0.598983 7:-0.129841 8:0.238454 9:-0.942284 10:-0.652899 11:0.000000 12:0.738343 13:-0.910126 14:-0.789674 15:0.009709 16:0.733710 17:-0.908467 18:-0.770674 19:-0.211521 20:-0.112081 21:0.141361 22:0.565211 23:-0.713088 24:-0.231943 25:0.207947 26:-0.053415 27:-0.470649 28:-0.359434 29:0.141039 30:0.382441 31:-0.523248 32:-0.545480 33:0.165764 34:0.223292 35:-0.520217 36:-0.548344
1024.000000 1:0.038671 2:-0.153149 3:0.319005 4:0.072465 5:-0.531684 6:-0.723599 7:0.346241 8:-0.135147 9:-0.678797 10:-0.617739 11:0.263043 12:0.362808 13:-0.617061 14:-0.643689 15:0.262136 16:0.389331 17:-0.626566 18:-0.593910 19:0.021302 20:-0.577504 21:-0.047120 22:0.464841 23:-0.954580 24:-0.836764 25:0.149669 26:0.009825 27:-0.907339 28:-0.885646 29:-0.094380 30:0.830817 31:-0.963187 32:-0.861784 33:-0.044420 34:0.642100 35:-0.969278 36:-0.864956
-468.941261 1:-0.853743 2:-0.731135 3:-0.680995 4:0.338505 5:-0.766911 6:-0.838681 7:-0.690205 8:-0.211614 9:-0.781667 10:-0.852462 11:-0.678261 12:0.223591 13:-0.664804 14:-0.893583 15:-0.697950 16:0.305417 17:-0.693509 18:-0.858656 19:-0.788179 20:-0.622356 21:-0.646597 22:0.118264 23:-0.583692 24:-0.750942 25:-0.565563 26:-0.488912 27:-0.319764 28:-0.799483 29:-0.700954 30:0.241448 31:-0.386098 32:-0.759681 33:-0.739978 34:0.183876 35:-0.391907 36:-0.685386
-378.968416 1:-0.853743 2:-0.731135 3:-0.680995 4:0.338505 5:-0.766911 6:-0.838681 7:-0.690205 8:-0.211614 9:-0.781667 10:-0.852462 11:-0.678261 12:0.223591 13:-0.664804 14:-0.893583 15:-0.697950 16:0.305417 17:-0.693509 18:-0.858656 19:-0.788179 20:-0.622356 21:-0.646597 22:0.118264 23:-0.583692 24:-0.750942 25:-0.565563 26:-0.488912 27:-0.319764 28:-0.799483 29:-0.700954 30:0.241448 31:-0.386098 32:-0.759681 33:-0.739978 34:0.183876 35:-0.391907 36:-0.685386
1024.000000 1:0.078334 2:0.199851 3:0.212670 4:0.856869 5:-0.543225 6:0.279428 7:0.298405 8:0.180717 9:-0.561405 10:0.014788 11:0.397826 12:0.247488 13:-0.321881 14:-0.389676 15:0.372168 16:0.349512 17:-0.350715 18:-0.229884 19:0.494149 20:0.534526 21:0.500000 22:0.887178 23:-0.555731 24:0.701002 25:0.740398 26:0.028456 27:-0.144756 28:0.178259 29:0.461294 30:0.427167 31:-0.209520 32:0.029577 33:0.460455 34:0.426657 35:-0.287111 36:0.166675
727.566416 1:-0.110064 2:-0.358557 3:0.117647 4:0.833911 5:-0.841068 6:-0.422985 7:0.246014 8:-0.069151 9:-0.755807 10:-0.653940 11:0.232609 12:0.482343 13:-0.725469 14:-0.688540 15:0.272923 16:0.434135 17:-0.708285 18:-0.672195 19:0.245125 20:0.199447 21:0.112565 22:0.463459 23:-0.321729 24:0.329201 25:0.200000 26:-0.049782 27:-0.150958 28:0.058142 29:0.312831 30:0.091253 31:-0.131931 32:-0.326464 33:0.456121 34:-0.170414 35:-0.083032 36:-0.429635
-985.868889 1:-0.864650 2:-0.527843 3:-0.699095 4:-0.362037 5:0.744524 6:-0.550688 7:-0.665148 8:-0.751192 9:0.381095 10:-0.700730 11:-0.639130 12:-0.690272 13:0.698175 14:-0.863730 15:-0.633225 16:-0.618354 17:0.647950 18:-0.831699 19:-0.649565 20:-0.144180 21:-0.455497 22:0.148515 23:-0.053658 24:0.030674 25:-0.035762 26:-0.924907 27:0.440881 28:-0.598435 29:-0.204666 30:-0.369122 31:0.231961 32:-0.613545 33:-0.180932 34:-0.386510 35:0.172227 36:-0.594599
1024.000000 1:-0.067427 2:0.286374 3:0.149321 4:0.430961 5:-0.234272 6:0.116398 7:0.036446 8:-0.029794 9:-0.240734 10:0.167403 11:0.367392 12:-0.316624 13:0.107068 14:-0.516922 15:0.382956 16:-0.255633 17:0.081133 18:-0.426575 19:0.715572 20:0.386151 21:0.688482 22:0.394152 23:-0.368178 24:0.111783 25:0.531126 26:0.034427 27:-0.083047 28:0.275859 29:0.679745 30:0.128914 31:-0.127091 32:-0.227464 33:0.802817 34:-0.131592 35:-0.073200 36:-0.323617
738.320918 1:-0.838870 2:-0.593056 3:-0.592760 4:-0.201770 5:-0.001927 6:-0.741735 7:-0.658314 8:-0.276235 9:-0.499721 10:-0.633760 11:-0.608696 12:-0.239557 13:-0.077665 14:-0.844632 15:-0.600863 16:-0.207730 17:-0.092672 18:-0.826243 19:-0.746175 20:-0.434096 21:-0.479058 22:-0.185879 23:-0.020455 24:-0.568043 25:-0.435762 26:-0.506860 27:-0.078619 28:-0.595047 29:-0.474019 30:-0.306402 31:0.099354 32:-0.791520 33:-0.477790 34:-0.349689 35:0.086985 36:-0.770115
1024.000000 1:-0.495290 2:0.033872 3:-0.223982 4:0.514334 5:-0.268929 6:0.209001 7:-0.082005 8:-0.552027 9:0.107405 10:-0.347037 11:0.100000 12:-0.427347 13:0.133035 14:-0.638476 15:0.093851 16:-0.399842 17:0.139558 18:-0.580617 19:-0.150915 20:0.281050 21:0.062827 22:0.414245 23:-0.309487 24:0.250224 25:0.279470 26:-0.542378 27:0.287069 28:-0.183659 29:0.242842 30:-0.124489 31:0.031593 32:-0.399916 33:0.321777 34:-0.290373 35:0.043194 36:-0.460138
-1024.000000 1:-0.843827 2:-0.471368 3:-0.649321 4:-0.140219 5:0.270160 6:-0.485758 7:-0.637813 8:-0.697840 9:0.442839 10:-0.552403 11:-0.558696 12:-0.643731 13:0.529171 14:-0.837161 15:-0.546926 16:-0.635592 17:0.521758 18:-0.835480 19:-0.665167 20:-0.168303 21:-0.366492 22:-0.041474 23:-0.077904 24:-0.346685 25:-0.385430 26:-0.549479 27:0.353443 28:-0.274465 29:-0.272534 30:-0.364753 31:0.169683 32:-0.691835 33:-0.245937 34:-0.420655 35:0.136135 36:-0.694807
1024.000000 1:-0.407536 2:-0.299667 3:-0.278281 4:0.895143 5:-0.819126 6:-0.212079 7:-0.248292 8:-0.004579 9:-0.720186 10:-0.500954 11:-0.282609 12:0.638298 13:-0.676509 14:-0.470083 15:-0.288026 16:0.563221 17:-0.644619 18:-0.443049 19:-0.105311 20:0.000393 21:-0.159686 22:0.852843 23:-0.754973 24:0.251851 25:0.078146 26:-0.234862 27:-0.252406 28:-0.334616 29:-0.183457 30:0.782583 31:-0.499379 32:0.005785 33:-0.159263 34:0.438538 35:-0.411184 36:-0.092450
1024.000000 1:-0.312841 2:-0.731632 3:-0.124434 4:0.799885 5:-0.987114 6:-0.856279 7:-0.170843 8:0.116545 9:-0.979841 10:-0.882053 11:-0.113043 12:0.742279 13:-0.972383 14:-0.912203 15:-0.098166 16:0.743306 17:-0.972473 18:-0.912928 19:-0.156916 20:-0.584650 21:-0.031414 22:0.663690 23:-1.000820 24:-0.753131 25:-0.027815 26:0.344572 27:-0.975430 28:-0.741295 29:-0.170732 30:1.001953 31:-0.990009 32:-0.785152 33:-0.144095 34:0.760862 35:-0.989114 36:-0.804550
-1024.000000 1:-0.814080 2:-0.451991 3:-0.622172 4:0.225366 5:-0.256516 6:-0.367569 7:-0.633257 8:-0.415155 9:-0.105071 10:-0.477705 11:-0.515217 12:-0.339504 13:-0.010196 14:-0.840936 15:-0.505933 16:-0.353231 17:0.005467 18:-0.844129 19:-0.510351 20:-0.162821 21:-0.227749 22:0.142704 23:-0.292250 24:-0.259955 25:-0.237086 26:-0.289272 27:-0.080627 28:-0.249844 29:-0.056204 30:-0.110802 31:-0.203268 32:-0.701589 33:-0.037920 34:-0.221159 35:-0.200141 36:-0.710328
1024.000000 1:-0.605354 2:-0.117958 3:-0.352941 4:0.396460 5:-0.356610 6:-0.149210 7:-0.241458 8:-0.455563 9:-0.147708 10:-0.471880 11:-0.271739 12:0.071817 13:-0.176021 14:-0.494663 15:-0.277238 16:0.130061 17:-0.198724 18:-0.391749 19:-0.409541 20:0.086727 21:-0.138743 22:0.243616 23:-0.276278 24:-0.041580 25:0.157616 26:-0.689299 27:0.306013 28:-0.378534 29:-0.119830 30:0.093896 31:-0.028815 32:-0.283276 33:-0.152763 34:0.113935 35:-0.100770 36:-0.160249
1024.000000 1:-0.489836 2:-0.486921 3:-0.063348 4:0.814882 5:-0.905379 6:-0.592453 7:-0.095672 8:0.189775 9:-0.909870 10:-0.627802 11:-0.108696 12:0.719429 13:-0.861010 14:-0.708316 15:-0.096009 16:0.659405 17:-0.847103 18:-0.704692 19:-0.406541 20:-0.266483 21:-0.264398 22:0.541842 23:-0.742650 24:-0.304930 25:-0.205298 26:0.179699 27:-0.696697 28:-0.356189 29:-0.319194 30:0.708673 31:-0.672919 32:-0.445238 33:-0.293608 34:0.393850 35:-0.611370 36:-0.523646
1024.000000 1:-0.569162 2:-0.496323 3:-0.242081 4:0.699263 5:-0.843830 6:-0.557039 7:-0.239180 8:0.146981 9:-0.883338 10:-0.599388 11:-0.245652 12:0.606682 13:-0.812959 14:-0.717442 15:-0.225458 16:0.560885 17:-0.800687 18:-0.711501 19:-0.444344 20:-0.291388 21:-0.293194 22:0.508200 23:-0.726352 24:-0.327862 25:-0.239735 26:0.202449 27:-0.712881 28:-0.346381 29:-0.338282 30:0.726724 31:-0.691581 32:-0.457050 33:-0.321777 34:0.420624 35:-0.630253 36:-0.520785
1024.000000 1:-0.539911 2:-0.350950 3:-0.298643 4:0.585045 5:-0.739268 6:-0.487572 7:-0.298405 8:-0.018521 9:-0.734369 10:-0.539954 11:-0.313043 12:0.399095 13:-0.621912 14:-0.645063 15:-0.313916 16:0.422749 17:-0.629617 18:-0.592549 19:-0.372337 20:-0.140128 21:-0.267016 22:0.412202 23:-0.626721 24:-0.308641 25:-0.210596 26:-0.096520 27:-0.432794 28:-0.368405 29:-0.338282 30:0.538416 31:-0.492221 32:-0.372612 33:-0.304442 34:0.314659 35:-0.472339 36:-0.422591
1024.000000 1:-0.539911 2:-0.350950 3:-0.298643 4:0.585045 5:-0.739268 6:-0.487572 7:-0.298405 8:-0.018521 9:-0.734369 10:-0.539954 11:-0.313043 12:0.399095 13:-0.621912 14:-0.645063 15:-0.313916 16:0.422749 17:-0.629617 18:-0.592549 19:-0.372337 20:-0.140128 21:-0.267016 22:0.412202 23:-0.626721 24:-0.308641 25:-0.210596 26:-0.096520 27:-0.432794 28:-0.368405 29:-0.338282 30:0.538416 31:-0.492221 32:-0.372612 33:-0.304442 34:0.314659 35:-0.472339 36:-0.422591
-1024.000000 1:-0.671294 2:-0.711622 3:-0.266968 4:0.211906 5:-0.724964 6:-0.857831 7:-0.314351 8:-0.222276 9:-0.811174 10:-0.875995 11:-0.280435 12:0.250538 13:-0.764223 14:-0.907335 15:-0.296656 16:0.304988 17:-0.778043 18:-0.892522 19:-0.364536 20:-0.381150 21:0.123037 22:0.197217 23:-0.625425 24:-0.601894 25:0.144371 26:-0.348581 27:-0.381836 28:-0.601464 29:0.077413 30:0.216305 31:-0.498176 32:-0.686876 33:0.126761 34:0.128661 35:-0.532555 36:-0.677038
1024.000000 1:-0.897372 2:-0.496659 3:-0.712670 4:0.162902 5:-0.275187 6:-0.540013 7:-0.683371 8:-1.000000 9:0.711565 10:-0.879062 11:-0.708696 12:-0.467426 13:0.482035 14:-0.829901 15:-0.700108 16:-0.424849 17:0.451702 18:-0.803690 19:-0.845185 20:-0.615587 21:-0.591623 22:-0.075186 23:-0.445031 24:-0.840572 25:-0.536424 26:-0.803949 27:-0.006247 28:-0.903203 29:-0.660657 30:0.195061 31:-0.405833 32:-0.807493 33:-0.646804 34:0.070137 35:-0.430537 36:-0.821960
-942.404781 1:-0.912742 2:-0.874014 3:-0.771493 4:0.243308 5:-0.740171 6:-0.922919 7:-0.753986 8:-0.355667 9:-0.716282 10:-0.951965 11:-0.780435 12:0.193955 13:-0.673208 14:-0.947817 15:-0.769148 16:0.182318 17:-0.659705 18:-0.957722 19:-0.804380 20:-0.737880 21:-0.554974 22:0.132313 23:-0.677125 24:-0.814775 25:-0.417219 26:-0.784755 27:-0.112175 28:-0.902172 29:-0.573701 30:0.083451 31:-0.386399 32:-0.856918 33:-0.586132 34:-0.113933 35:-0.283653 36:-0.864092
-375.610729 1:-0.808131 2:-0.730467 3:-0.647059 4:0.585277 5:-0.903983 6:-0.778112 7:-0.589977 8:-0.147198 9:-0.864057 10:-0.878118 11:-0.584783 12:0.243175 13:-0.727638 14:-0.912525 15:-0.626753 16:0.460981 17:-0.825576 18:-0.858009 19:-0.729973 20:-0.575573 21:-0.539267 22:0.089821 23:-0.537144 24:-0.710352 25:-0.565563 26:-0.439369 27:-0.294662 28:-0.723854 29:-0.626723 30:-0.013166 31:-0.177744 32:-0.805754 33:-0.575298 34:-0.023741 35:-0.347090 36:-0.815973
1024.000000 1:-0.691621 2:-0.500318 3:-0.429864 4:0.407708 5:-0.670241 6:-0.603620 7:-0.533030 8:0.161236 9:-0.836440 10:-0.401864 11:-0.510870 12:0.192990 13:-0.479648 14:-0.717391 15:-0.501618 16:0.418867 17:-0.616774 18:-0.596964 19:-0.586559 20:-0.355608 21:-0.345550 22:0.024850 23:-0.387841 24:-0.588081 25:-0.441060 26:-0.014396 27:-0.519162 28:-0.355235 29:-0.461294 30:0.237189 31:-0.330487 32:-0.584720 33:-0.544962 34:0.351526 35:-0.444734 36:-0.382702
650.880092 1:-0.888944 2:-0.636239 3:-0.669683 4:-0.071190 5:-0.135908 6:-0.730754 7:-0.692483 8:-0.517352 9:-0.191273 10:-0.746193 11:-0.726087 12:-0.391333 13:0.424257 14:-0.802603 15:-0.723840 16:-0.397820 17:0.479198 18:-0.785548 19:-0.792979 20:-0.430241 21:-0.445026 22:-0.502338 23:0.387141 24:-0.675578 25:-0.403974 26:-1.044943 27:0.752067 28:-0.686784 29:-0.533404 30:-0.045051 31:0.041504 32:-0.582720 33:-0.525460 34:-0.174749 35:0.070867 36:-0.588244
1024.000000 1:-0.571145 2:-0.611427 3:-0.328054 4:0.590786 5:-0.877823 6:-0.742666 7:-0.334852 8:-0.055929 9:-0.873998 10:-0.806890 11:-0.289130 12:0.461660 13:-0.829864 14:-0.850389 15:-0.270766 16:0.428160 17:-0.817227 18:-0.851347 19:-0.334533 20:-0.371598 21:-0.120419 22:0.415519 23:-0.742572 24:-0.506565 25:-0.075497 26:-0.168111 27:-0.565099 28:-0.613278 29:-0.187699 30:0.444002 31:-0.604698 32:-0.635313 33:-0.165764 34:0.283567 35:-0.607468 36:-0.641638
-16.585725 1:-0.594447 2:-0.060960 3:0.054299 4:-0.565702 5:0.871710 6:-0.208788 7:-0.184510 8:-0.730216 9:0.931559 10:0.047656 11:0.158696 12:-1.170824 13:1.071616 14:-0.673967 15:0.171521 16:-1.223997 17:1.132035 18:-0.672656 19:0.172517 20:0.445702 21:1.125654 22:-0.872393 23:1.100911 24:-0.142346 25:0.674172 26:0.196423 27:-0.032551 28:0.615183 29:0.711559 30:-0.780975 31:0.921878 32:-0.168353 33:0.787649 34:-0.865197 35:0.947825 36:-0.203320
-290.910055 1:-0.930590 2:-0.762383 3:-0.828054 4:0.463580 5:-0.387226 6:-0.093469 7:-0.797267 8:-0.148922 9:-0.488497 10:-0.393004 11:-0.782609 12:0.114912 13:-0.064763 14:-0.559902 15:-0.779935 16:0.115481 17:-0.083383 18:-0.540674 19:-0.899790 20:-0.577406 21:-0.709424 22:0.217395 23:-0.116570 24:0.021751 25:-0.684768 26:-0.154657 27:0.044118 28:0.077358 29:-0.766702 30:0.408424 31:0.149615 32:0.160513 33:-0.752979 34:0.161025 35:0.144913 36:-0.072386
-1024.000000 1:-0.799703 2:-0.678130 3:-0.615385 4:0.207322 5:-0.499271 6:-0.675355 7:-0.676538 8:-0.159142 9:-0.618452 10:-0.578166 11:-0.604348 12:0.182746 13:-0.499849 14:-0.769584 15:-0.581446 16:0.135588 17:-0.478642 18:-0.779545 19:-0.570357 20:-0.258008 21:-0.293194 22:0.002559 23:-0.150298 24:-0.333987 25:-0.279470 26:-0.329828 27:-0.043155 28:-0.278363 29:-0.338282 30:0.172291 31:-0.164780 32:-0.420137 33:-0.276273 34:-0.021910 35:-0.161264 36:-0.492135
1024.000000 1:-0.929103 2:-0.870143 3:-0.789593 4:0.197811 5:-0.677628 6:-0.917463 7:-0.806378 8:-0.349017 9:-0.656856 10:-0.917392 11:-0.797826 12:0.111021 13:-0.575279 14:-0.950253 15:-0.795038 16:0.086167 17:-0.529491 18:-0.956818 19:-0.885989 20:-0.729826 21:-0.698953 22:-0.086376 23:-0.304323 24:-0.782782 25:-0.610596 26:-0.753313 27:0.112745 28:-0.825125 29:-0.713680 30:-0.110091 31:-0.036917 32:-0.863281 33:-0.713976 34:-0.202895 35:-0.034447 36:-0.860074
-1024.000000 1:-0.867129 2:-0.837462 3:-0.579186 4:0.320474 5:-0.834216 6:-0.920903 7:-0.605923 8:-0.191881 9:-0.876027 10:-0.933509 11:-0.565217 12:0.304180 13:-0.810165 14:-0.942469 15:-0.555556 16:0.271372 17:-0.786573 18:-0.950133 19:-0.792979 20:-0.547240 21:-0.505236 22:0.050392 23:-0.429301 24:-0.637290 25:-0.488742 26:-0.341053 27:-0.324994 28:-0.608711 29:-0.505832 30:0.078968 31:-0.261142 32:-0.715048 33:-0.497291 34:-0.112084 35:-0.189371 36:-0.735712
-1024.000000 1:-0.807139 2:-0.724339 3:-0.669683 4:0.552825 5:-0.850543 6:-0.710477 7:-0.628702 8:-0.163577 9:-0.786485 10:-0.797580 11:-0.600000 12:0.369439 13:-0.748185 14:-0.843896 15:-0.594391 16:0.397709 17:-0.762077 18:-0.829492 19:-0.735974 20:-0.516039 21:-0.599476 22:0.208428 23:-0.545095 24:-0.556703 25:-0.602649 26:-0.160702 27:-0.418300 28:-0.462641 29:-0.637328 30:0.432038 31:-0.449844 32:-0.549380 33:-0.609967 34:0.191261 35:-0.410231 36:-0.621221
1024.000000 1:-0.031235 2:0.066769 3:0.223982 4:0.367333 5:-0.392660 6:-0.220626 7:0.161731 8:0.012598 9:-0.507203 10:-0.164533 11:0.206522 12:0.264186 13:-0.322406 14:-0.384180 15:0.147789 16:0.321008 17:-0.323271 18:-0.240047 19:0.365737 20:0.261291 21:0.429319 22:0.345978 23:-0.414766 24:-0.052004 25:0.403974 26:0.237218 27:-0.416831 28:0.118771 29:0.206787 30:0.446588 31:-0.287675 32:-0.095197 33:0.269772 34:0.339638 35:-0.333823 36:-0.077676
1024.000000 1:-0.090233 2:-0.057644 3:-0.013575 4:0.727179 5:-0.628946 6:-0.089382 7:0.070615 8:-0.134249 9:-0.530675 10:-0.417448 11:0.154348 12:0.066157 13:-0.417627 14:-0.675132 15:0.152104 16:0.029814 17:-0.391686 18:-0.652637 19:0.198920 20:-0.070792 21:0.018325 22:0.734768 23:-0.771608 24:-0.062524 25:0.210596 26:-0.216191 27:-0.433423 28:-0.508573 29:0.138918 30:0.267350 31:-0.514072 32:-0.650598 33:0.141928 34:0.148875 35:-0.524821 36:-0.643348
1024.000000 1:-0.054041 2:-0.287268 3:0.153846 4:0.766736 5:-0.784087 6:-0.376887 7:0.173121 8:0.087947 9:-0.779158 10:-0.506706 11:0.260870 12:0.423694 13:-0.663014 14:-0.651984 15:0.214671 16:0.529288 17:-0.682355 18:-0.541192 19:0.373537 20:0.186927 21:0.680628 22:0.503125 23:-0.503577 24:0.056088 25:0.396026 26:-0.072858 27:-0.177337 28:-0.011664 29:0.340403 30:0.074084 31:-0.077586 32:-0.272533 33:0.215601 34:0.267226 35:-0.179031 36:0.054985
1024.000000 1:-0.760040 2:-0.488375 3:-0.585973 4:0.368452 5:-0.503719 6:-0.435024 7:-0.503417 8:-0.555665 9:-0.181950 10:-0.708859 11:-0.502174 12:-0.232081 13:-0.132509 14:-0.822864 15:-0.492988 16:-0.285991 17:-0.094360 18:-0.842235 19:-0.613561 20:-0.430453 21:-0.416230 22:0.142049 23:-0.516778 24:-0.587355 25:-0.419868 26:-0.083125 27:-0.598767 28:-0.558823 29:-0.461294 30:0.263214 31:-0.485633 32:-0.734969 33:-0.430119 34:0.080168 35:-0.488104 36:-0.783379
1024.000000 1:-0.751116 2:-0.659263 3:-0.500000 4:0.501810 5:-0.781464 6:-0.661066 7:-0.507973 8:-0.047195 9:-0.805099 10:-0.676850 11:-0.486957 12:0.382861 13:-0.721289 14:-0.791411 15:-0.486516 16:0.353765 17:-0.701584 18:-0.781327 19:-0.538554 20:-0.614556 21:-0.259162 22:0.463591 23:-0.882296 24:-0.696009 25:-0.210596 26:0.102160 27:-0.852228 28:-0.708775 29:-0.374337 30:0.879228 31:-0.891899 32:-0.669350 33:-0.343445 34:0.620102 35:-0.872272 36:-0.695908
-1024.000000 1:-0.865642 2:-0.581111 3:-0.665158 4:-0.050123 5:-0.005767 6:-0.591409 7:-0.671982 8:-0.472988 9:-0.203828 10:-0.679194 11:-0.604348 12:-0.311496 13:-0.006890 14:-0.860765 15:-0.581446 16:-0.349982 17:0.019005 18:-0.874587 19:-0.749175 20:-0.271467 21:-0.570681 22:0.142283 23:-0.164045 24:-0.168789 25:-0.435762 26:-0.656492 27:0.395921 28:-0.424896 29:-0.370095 30:-0.411632 31:0.156624 32:-0.793726 33:-0.343445 34:-0.485671 35:0.131148 36:-0.812069
-1024.000000 1:-0.856222 2:-0.583120 3:-0.642534 4:0.105413 5:-0.329459 6:-0.647914 7:-0.617312 8:-0.520546 9:-0.222133 10:-0.736588 11:-0.586957 12:-0.142803 13:-0.202257 14:-0.829233 15:-0.613808 16:-0.079738 17:-0.197639 18:-0.779770 19:-0.747375 20:-0.385954 21:-0.468586 22:-0.072824 23:-0.213685 24:-0.579461 25:-0.382781 26:-0.631292 27:0.034693 28:-0.645095 29:-0.490986 30:0.055627 31:-0.187055 32:-0.660453 33:-0.495125 34:-0.052250 35:-0.182824 36:-0.651890
557.789656 1:-0.439762 2:0.300030 3:0.133484 4:0.112895 5:0.365226 6:0.403567 7:0.186788 8:-0.591617 9:0.575303 10:0.084144 11:0.521739 12:-0.858890 13:0.741119 14:-0.516513 15:0.484358 16:-0.923983 17:0.847449 18:-0.474479 19:-0.137714 20:0.546506 21:0.298429 22:0.280834 23:-0.023810 24:0.458225 25:0.396026 26:-0.496154 27:0.527139 28:0.131123 29:0.281018 30:-0.170401 31:0.290048 32:-0.145771 33:0.304442 34:-0.227022 35:0.258152 36:-0.120137
324.919273 1:-0.856718 2:-0.800545 3:-0.558824 4:0.037016 5:-0.545786 6:-0.884763 7:-0.560364 8:-0.505014 9:-0.545327 10:-0.923560 11:-0.558696 12:0.000329 13:-0.565470 14:-0.940382 15:-0.555556 16:0.015133 17:-0.569392 18:-0.946266 19:-0.629763 20:-0.534997 21:-0.099476 22:-0.028037 23:-0.490859 24:-0.723077 25:-0.049007 26:-0.575802 27:-0.287419 28:-0.760908 29:-0.200424 30:0.061837 31:-0.435629 32:-0.804393 33:-0.204767 34:-0.009982 35:-0.464230 36:-0.794357
1024.000000 1:-0.596926 2:-0.148416 3:-0.337104 4:0.009850 5:-0.126569 6:-0.460318 7:-0.321185 8:-0.519109 9:-0.107322 10:-0.544278 11:-0.419565 12:0.441155 13:-0.370844 14:-0.282526 15:-0.417476 16:0.528246 17:-0.395159 18:-0.078944 19:-0.370537 20:0.071590 21:-0.170157 22:0.149076 23:-0.360839 24:-0.334087 25:-0.062252 26:-0.404581 27:-0.118025 28:-0.427726 29:-0.391304 30:0.641742 31:-0.358335 32:0.010457 33:-0.378115 34:0.479699 35:-0.338109 36:0.087016
-786.494568 1:-0.650967 2:-0.021797 3:-0.228507 4:-0.037332 5:0.118088 6:-0.235825 7:-0.239180 8:-0.754920 9:0.311373 10:-0.519431 11:-0.317391 12:-0.087724 13:0.088925 14:-0.441486 15:-0.389428 16:0.091895 17:0.091837 18:-0.136285 19:-0.196520 20:0.307223 21:0.164921 22:0.052695 23:0.004842 24:0.039824 25:0.327152 26:-0.902219 27:0.588442 28:-0.388545 29:0.011665 30:0.370877 31:-0.148389 32:-0.013462 33:-0.005417 34:0.313574 35:-0.177609 36:0.108761
725.843777 1:-0.636589 2:0.128686 3:-0.343891 4:0.195628 5:0.023640 6:0.017631 7:-0.357631 8:-0.302903 9:0.033078 10:-0.034502 11:-0.217391 12:-0.207545 13:0.153701 14:-0.488956 15:-0.225458 16:-0.186157 17:0.170662 18:-0.398598 19:-0.290129 20:0.392282 21:0.013089 22:0.014530 23:0.037280 24:-0.011366 25:0.075497 26:-0.433329 27:0.298739 28:-0.039357 29:-0.141039 30:0.238615 31:0.025622 32:0.002381 33:-0.120260 34:0.199885 35:-0.047104 36:0.083863
-731.682964 1:-0.974715 2:-0.964731 3:-0.909502 4:0.316561 5:-0.818447 6:-0.963755 7:-0.890661 8:-0.368231 9:-0.695287 10:-0.989774 11:-0.900000 12:0.158154 13:-0.621214 14:-0.986795 15:-0.894283 16:0.172950 17:-0.624358 18:-0.997579 19:-0.947195 20:-0.887496 21:-0.853403 22:0.060770 23:-0.540396 24:-0.864862 25:-0.721854 26:-0.858243 27:0.154483 28:-0.966545 29:-0.819724 30:0.018750 31:-0.208468 32:-0.943326 33:-0.817985 34:-0.078698 35:-0.234956 36:-0.946988
1024.000000 1:-0.130887 2:0.056673 3:0.067873 4:0.237602 5:-0.096182 6:-0.003877 7:0.072893 8:-0.371484 9:-0.054494 10:-0.203596 11:0.086957 12:0.031691 13:-0.041735 14:-0.340007 15:0.070119 16:0.084658 17:-0.032315 18:-0.180812 19:0.142514 20:0.527445 21:0.324607 22:0.296421 23:-0.055315 24:0.441056 25:0.462252 26:-0.336752 27:0.325197 28:0.176298 29:0.253446 30:0.166087 31:0.086033 32:0.067553 33:0.148429 34:0.163007 35:0.094171 36:0.296508
-1024.000000 1:-0.974219 2:-0.975854 3:-0.891403 4:0.048687 5:-0.468203 6:-0.971311 7:-0.881549 8:-0.511466 9:-0.405617 10:-0.977940 11:-0.900000 12:0.030856 13:-0.417552 14:-0.980328 15:-0.896440 16:0.065517 17:-0.431476 18:-0.982641 19:-0.902190 20:-0.898579 21:-0.777487 22:0.073779 23:-0.649494 24:-0.910299 25:-0.655629 26:-0.635267 27:-0.273793 28:-0.941337 29:-0.777306 30:0.157346 31:-0.433650 32:-0.936497 33:-0.774648 34:0.092614 35:-0.495543 36:-0.924285
1024.000000 1:-0.591968 2:0.061040 3:-0.343891 4:0.291011 5:-0.084107 6:0.053185 7:-0.177677 8:-0.538106 9:0.002337 10:-0.441576 11:-0.202174 12:-0.037161 13:-0.014741 14:-0.445131 15:-0.199569 16:0.029535 17:-0.073079 18:-0.361014 19:-0.380138 20:0.172460 21:-0.274869 22:0.621045 23:-0.491189 24:0.379710 25:0.178808 26:-0.627450 27:0.059448 28:-0.505851 29:-0.130435 30:0.229896 31:-0.193706 32:-0.315670 33:-0.072589 34:0.068753 35:-0.228567 36:-0.387859
1024.000000 1:-0.947942 2:-0.868180 3:-0.821267 4:0.114097 5:-0.522088 6:-0.896863 7:-0.820046 8:-0.502929 9:-0.426618 10:-0.944523 11:-0.869565 12:0.101328 13:-0.439004 14:-0.918912 15:-0.870550 16:0.080429 17:-0.366195 18:-0.911699 19:-0.907591 20:-0.734761 21:-0.712042 22:-0.113720 23:-0.251626 24:-0.783689 25:-0.666225 26:-0.769124 27:0.126683 28:-0.864300 29:-0.762460 30:-0.022783 31:-0.056526 32:-0.829606 33:-0.772481 34:-0.128268 35:-0.040649 36:-0.829167
1024.000000 1:0.395637 2:0.857325 3:0.828054 4:-0.302051 5:0.981183 6:0.513668 7:0.758542 8:-0.710254 9:1.082388 10:0.447239 11:0.597826 12:0.531702 13:0.544883 14:1.197997 15:0.674218 16:0.403615 17:0.585644 18:1.335905 19:0.323732 20:0.825846 21:0.531414 22:0.217601 23:0.107960 24:0.547063 25:0.642384 26:-0.512031 27:0.630286 28:0.234748 29:0.270414 30:0.558747 31:0.131595 32:0.831359 33:0.308776 34:0.334591 35:0.143666 36:0.758835
1024.000000 1:-0.805652 2:-0.277662 3:-0.490950 4:-0.120930 5:0.069177 6:-0.518865 7:-0.519362 8:-0.533865 9:0.000080 10:-0.539327 11:-0.515217 12:-0.097275 13:-0.036018 14:-0.636133 15:-0.510248 16:-0.042781 17:-0.062099 18:-0.561710 19:-0.714371 20:-0.222069 21:-0.531414 22:0.320527 23:-0.551900 24:-0.358670 25:-0.396026 26:-0.461694 27:-0.161507 28:-0.596864 29:-0.490986 30:0.213457 31:-0.346463 32:-0.644233 33:-0.560130 34:0.277289 35:-0.425847 36:-0.485834
837.759828 1:-0.968270 2:-0.945275 3:-0.938914 4:0.402115 5:-0.865258 6:-0.930266 7:-0.897494 8:-0.414057 9:-0.634073 10:-1.000435 11:-0.923913 12:0.181457 13:-0.612254 14:-0.979799 15:-0.924488 16:0.219408 17:-0.630064 18:-0.982593 19:-0.954395 20:-0.908881 21:-0.942408 22:0.276621 23:-0.799427 24:-0.858339 25:-0.780132 26:-0.673428 27:-0.228191 28:-1.002579 29:-0.891835 30:0.251435 31:-0.441253 32:-0.940093 33:-0.900325 34:0.138972 35:-0.458213 36:-0.936397
303.812426 1:-0.804165 2:-0.772485 3:-0.574661 4:-0.046553 5:-0.407520 6:-0.860325 7:-0.656036 8:-0.229944 9:-0.777339 10:-0.865151 11:-0.647826 12:0.311103 13:-0.737822 14:-0.885234 15:-0.663430 16:0.387056 17:-0.762748 18:-0.850590 19:-0.705971 20:-0.520192 21:-0.515707 22:0.017737 23:-0.367867 24:-0.621158 25:-0.499338 26:-0.121735 27:-0.594190 28:-0.605537 29:-0.609756 30:0.470153 31:-0.550341 32:-0.622222 33:-0.622969 34:0.400592 35:-0.597155 36:-0.560323
-917.579123 1:-0.847298 2:-0.722676 3:-0.733032 4:0.328160 5:-0.703436 6:-0.783621 7:-0.769932 8:-0.131756 9:-0.783685 10:-0.752174 11:-0.769565 12:0.296133 13:-0.621589 14:-0.820510 15:-0.756203 16:0.288548 17:-0.613995 18:-0.812272 19:-0.725773 20:-0.488437 21:-0.531414 22:0.037448 23:-0.450069 24:-0.685367 25:-0.557616 26:-0.207016 27:-0.450472 28:-0.563479 29:-0.681866 30:0.474661 31:-0.474355 32:-0.540725 33:-0.683640 34:0.332930 35:-0.491967 36:-0.539312
-1024.000000 1:-0.858701 2:-0.741044 3:-0.640271 4:0.090372 5:-0.546543 6:-0.861813 7:-0.683371 8:-0.340524 9:-0.615007 10:-0.840466 11:-0.686957 12:0.086141 13:-0.492224 14:-0.874276 15:-0.652643 16:0.017210 17:-0.446400 18:-0.891803 19:-0.734173 20:-0.552769 21:-0.429319 22:-0.035307 23:-0.440958 24:-0.742834 25:-0.403974 26:-0.522706 27:-0.226354 28:-0.723416 29:-0.518558 30:0.107782 31:-0.317841 32:-0.745363 33:-0.525460 34:-0.009019 35:-0.301085 36:-0.731075
1024.000000 1:-0.838870 2:-0.765021 3:-0.608597 4:0.153207 5:-0.681127 6:-0.909581 7:-0.678815 8:-0.252109 9:-0.766326 10:-0.879900 11:-0.691304 12:0.252556 13:-0.678674 14:-0.886260 15:-0.652643 16:0.175647 17:-0.638178 18:-0.908717 19:-0.645365 20:-0.619031 21:-0.342932 22:0.016449 23:-0.607650 24:-0.830590 25:-0.372185 26:-0.399059 27:-0.483599 28:-0.796389 29:-0.461294 30:0.228972 31:-0.527291 32:-0.813728 33:-0.421452 34:0.039341 35:-0.501298 36:-0.836598
1024.000000 1:-0.597422 2:-0.717935 3:-0.608597 4:0.632656 5:-0.917755 6:-0.758463 7:-0.578588 8:-0.016848 9:-0.911453 10:-0.814149 11:-0.593478 12:0.556450 13:-0.875728 14:-0.851529 15:-0.590076 16:0.564690 17:-0.875414 18:-0.837058 19:-0.688569 20:-0.646258 21:-0.701571 22:0.517053 23:-0.908446 24:-0.648587 25:-0.660927 26:0.081675 27:-0.825075 28:-0.638993 29:-0.749735 30:0.800660 31:-0.839426 32:-0.667854 33:-0.755146 34:0.609052 35:-0.837216 36:-0.664556
-812.881982 1:-0.991076 2:-0.969836 3:-0.947964 4:0.184328 5:-0.619372 6:-0.966704 7:-0.940774 8:-0.395371 9:-0.596361 10:-0.987444 11:-0.978261 12:0.059382 13:-0.325832 14:-0.986916 15:-0.993528 16:0.388046 17:-0.744400 18:-0.939629 19:-0.955596 20:-0.932488 21:-0.866492 22:0.006426 23:-0.566085 24:-0.954543 25:-0.806623 26:-0.464621 27:-0.513240 28:-0.981420 29:-0.904560 30:0.326117 31:-0.553782 32:-0.959294 33:-0.924160 34:0.438371 35:-0.803676 36:-0.908451
-1024.000000 1:-0.794745 2:-0.837645 3:-0.615385 4:0.384721 5:-0.886151 6:-0.936798 7:-0.635535 8:-0.149302 9:-0.902416 10:-0.930124 11:-0.593478 12:0.347676 13:-0.859829 14:-0.964808 15:-0.607335 16:0.416498 17:-0.873886 18:-0.952556 19:-0.683768 20:-0.689680 21:-0.363874 22:0.386643 23:-0.901309 24:-0.816140 25:-0.305960 26:-0.077009 27:-0.810615 28:-0.818979 29:-0.437964 30:0.545132 31:-0.797077 32:-0.840003 33:-0.447454 34:0.536270 35:-0.871881 36:-0.795372
-120.194666 1:-0.889440 2:-0.714489 3:-0.678733 4:-0.080003 5:-0.187548 6:-0.786088 7:-0.674260 8:-0.620474 9:-0.144316 10:-0.839473 11:-0.673913 12:-0.199528 13:-0.153842 14:-0.888339 15:-0.669903 16:-0.178779 17:-0.157485 18:-0.882351 19:-0.759976 20:-0.541868 21:-0.507853 22:-0.047591 23:-0.320655 24:-0.663830 25:-0.380132 26:-0.680953 27:-0.071014 28:-0.772849 29:-0.495228 30:-0.024728 31:-0.239325 32:-0.797501 33:-0.497291 34:-0.144906 35:-0.221624 36:-0.802207
1024.000000 1:-0.853247 2:-0.732135 3:-0.721719 4:0.229831 5:-0.568015 6:-0.754152 7:-0.697039 8:-0.351917 9:-0.624308 10:-0.864656 11:-0.678261 12:0.182073 13:-0.614124 14:-0.885281 15:-0.669903 16:0.160067 17:-0.595927 18:-0.891727 19:-0.744974 20:-0.530136 21:-0.630890 22:0.277480 23:-0.582253 24:-0.495566 25:-0.430464 26:-0.587166 27:-0.235267 28:-0.803582 29:-0.522800 30:0.171585 31:-0.440060 32:-0.801532 33:-0.540628 34:0.047943 35:-0.441263 36:-0.809519
1024.000000 1:-0.500248 2:0.082171 3:-0.063348 4:0.012482 5:0.142489 6:-0.085690 7:-0.116173 8:-0.403685 9:0.153793 10:-0.056367 11:-0.032609 12:-0.166621 13:0.116571 14:-0.428162 15:-0.065804 16:-0.095430 17:0.132871 18:-0.265127 19:-0.279928 20:0.400020 21:-0.054974 22:0.302985 23:-0.121314 24:0.328760 25:0.099338 26:-0.312070 27:0.223101 28:0.076609 29:-0.011665 30:0.171279 31:-0.041015 32:-0.160322 33:-0.037920 34:0.104177 35:-0.044743 36:-0.065562
1024.000000 1:-0.398612 2:-0.799784 3:-0.196833 4:0.514723 5:-0.950830 6:-0.943092 7:-0.173121 8:-0.107163 9:-0.944422 10:-0.959142 11:-0.247826 12:0.541173 13:-0.939501 14:-0.948474 15:-0.253506 16:0.549309 17:-0.939569 18:-0.952476 19:0.119712 20:-0.672993 21:0.277487 22:0.517456 23:-0.988900 24:-0.867133 25:0.369536 26:0.034268 27:-0.924738 28:-0.898328 29:0.032874 30:0.872074 31:-0.971696 32:-0.848792 33:0.040087 34:0.695885 35:-0.978746 36:-0.840253
1024.000000 1:-0.728805 2:-0.778556 3:-0.601810 4:0.461327 5:-0.880791 6:-0.865921 7:-0.626424 8:-0.178427 9:-0.844677 10:-0.885554 11:-0.578261 12:0.355450 13:-0.814499 14:-0.918067 15:-0.574973 16:0.328982 17:-0.796373 18:-0.923645 19:-0.644164 20:-0.589586 21:-0.541885 22:0.412907 23:-0.830681 24:-0.664275 25:-0.496689 26:-0.141703 27:-0.642037 28:-0.686934 29:-0.548250 30:0.545577 31:-0.714615 32:-0.743127 33:-0.525460 34:0.388521 35:-0.729061 36:-0.749960
-1024.000000 1:0.245414 2:0.932064 3:0.610860 4:0.333163 5:0.337223 6:0.828158 7:0.619590 8:-0.169192 9:0.357331 10:0.700221 11:0.508696 12:0.114539 13:0.615990 14:0.572603 15:0.508091 16:0.121416 17:0.621451 18:0.819203 19:0.318932 20:0.991313 21:0.638743 22:0.410883 23:-0.049511 24:0.697792 25:0.658278 26:-0.066031 27:0.332771 28:0.647082 29:0.278897 30:0.505898 31:0.221616 32:0.890666 33:0.330444 34:0.358222 35:0.177655 36:0.875313
1024.000000 1:0.005949 2:-0.152804 3:0.147059 4:0.713970 5:-0.719693 6:-0.307866 7:0.109339 8:0.200645 9:-0.771856 10:-0.332906 11:0.145652 12:0.418285 13:-0.604961 14:-0.584716 15:0.141316 16:0.358099 17:-0.576563 18:-0.558506 19:0.386739 20:0.018411 21:0.363874 22:0.550892 23:-0.691429 24:-0.220357 25:0.401325 26:0.326893 27:-0.681368 28:-0.194481 29:0.174973 30:0.636198 31:-0.594514 32:-0.364357 33:0.187433 34:0.426613 35:-0.580009 36:-0.378554
814.833252 1:-0.045612 2:0.218384 3:0.203620 4:0.548100 5:-0.295882 6:0.214278 7:0.280182 8:-0.282785 9:-0.160293 10:-0.169196 11:0.300000 12:0.061251 13:-0.079698 14:-0.321816 15:0.294499 16:-0.030765 17:-0.012198 18:-0.275082 19:0.308731 20:0.147145 21:0.418848 22:0.670312 23:-0.689912 24:-0.026023 25:0.462252 26:-0.356292 27:-0.157636 28:-0.364850 29:0.272534 30:0.311302 31:-0.366485 32:-0.386289 33:0.241603 34:0.222126 35:-0.378802 36:-0.331358
-603.666824 1:0.548835 2:0.427407 3:0.662896 4:0.321841 5:-0.066281 6:0.207969 7:0.526196 8:-0.029287 9:-0.077520 10:0.385735 11:0.743478 12:-0.134059 13:0.127359 14:-0.276912 15:0.585761 16:0.117204 17:0.103018 18:0.103609 19:0.301530 20:0.237894 21:0.274869 22:0.541982 23:-0.537536 24:0.071384 25:0.393377 26:-0.051582 27:-0.211597 28:-0.024228 29:0.187699 30:0.314526 31:-0.297344 32:-0.291977 33:0.079090 34:0.489552 35:-0.401722 36:0.038128
-482.199518 1:0.356470 2:0.700159 3:0.626697 4:0.259897 5:0.134646 6:0.396145 7:0.646925 8:0.010627 9:-0.052807 10:0.495361 11:0.526087 12:0.181060 13:0.294625 14:0.282388 15:0.533981 16:0.372304 17:0.204371 18:0.661893 19:0.533153 20:0.605370 21:0.735602 22:0.503244 23:-0.398115 24:0.252471 25:0.790728 26:0.220221 27:-0.256191 28:0.314241 29:0.423118 30:0.617939 31:-0.224489 32:0.295133 33:0.397617 34:0.624317 35:-0.294726 36:0.519691
1024.000000 1:-0.096182 2:-0.001913 3:0.074661 4:0.731880 5:-0.631156 6:-0.095485 7:0.084282 8:0.025552 9:-0.610168 10:-0.301977 11:0.119565 12:0.274627 13:-0.432101 14:-0.508541 15:0.098166 16:0.298380 17:-0.423646 18:-0.413674 19:0.124512 20:0.068302 21:0.188482 22:0.657531 23:-0.736530 24:-0.133683 25:0.343046 26:-0.115891 27:-0.464593 28:-0.427398 29:0.132556 30:0.523561 31:-0.535705 32:-0.404513 33:0.089924 34:0.423774 35:-0.543116 36:-0.325048
-1024.000000 1:-0.223599 2:-0.071460 3:-0.033937 4:0.944625 5:-0.712777 6:0.084248 7:0.154898 8:-0.353739 9:-0.431910 10:-0.579702 11:0.123913 12:0.120700 13:-0.393332 14:-0.608155 15:0.104639 16:0.298342 17:-0.462760 18:-0.467042 19:0.108311 20:0.094160 21:0.130890 22:1.079957 23:-0.844484 24:0.379068 25:0.382781 26:-0.406933 27:-0.207386 28:-0.478096 29:0.177094 30:0.159033 31:-0.334899 32:-0.528947 33:0.230769 34:0.221936 35:-0.448958 36:-0.438640
-1024.000000 1:-0.308379 2:-0.282846 3:-0.171946 4:0.582340 5:-0.693821 6:-0.414693 7:-0.168565 8:-0.010116 9:-0.672972 10:-0.439202 11:-0.169565 12:0.359372 13:-0.586696 14:-0.629858 15:-0.149946 16:0.389985 17:-0.600866 18:-0.575956 19:-0.264326 20:-0.166975 21:-0.185864 22:0.542197 23:-0.744807 24:-0.314545 25:-0.117881 26:0.109204 27:-0.575607 28:-0.274396 29:-0.255567 30:0.613825 31:-0.621878 32:-0.472712 33:-0.263272 34:0.505402 35:-0.654190 36:-0.432549
-1024.000000 1:-0.344075 2:-0.058976 3:-0.042986 4:0.478959 5:-0.517611 6:-0.261167 7:-0.075171 8:-0.166943 9:-0.469165 10:-0.384256 11:-0.078261 12:0.211477 13:-0.357967 14:-0.504286 15:-0.096009 16:0.245586 17:-0.356922 18:-0.407120 19:-0.057306 20:-0.050567 21:0.078534 22:0.524190 23:-0.693833 24:-0.256246 25:0.120530 26:-0.011492 27:-0.546637 28:-0.405945 29:-0.015907 30:0.508065 31:-0.567720 32:-0.487725 33:-0.048754 34:0.409292 35:-0.576689 36:-0.415658
-446.566632 1:-0.040654 2:0.293773 3:0.217195 4:0.613107 5:-0.350286 6:0.231132 7:0.243736 8:-0.159977 9:-0.223335 10:-0.048689 11:0.358696 12:0.074686 13:-0.089171 14:-0.311792 15:0.277238 16:0.217165 17:-0.119329 18:-0.083890 19:0.079508 20:0.313680 21:0.217278 22:0.611602 23:-0.587206 24:0.103130 25:0.319205 26:0.013258 27:-0.306613 28:-0.053462 29:0.128314 30:0.515786 31:-0.358756 32:-0.121893 33:0.105092 34:0.404843 35:-0.371894 36:-0.051689
-1024.000000 1:-0.103123 2:-0.012619 3:0.128959 4:0.746395 5:-0.629624 6:-0.075167 7:0.138952 8:0.016798 9:-0.585572 10:-0.279239 11:0.147826 12:0.275094 13:-0.427086 14:-0.500427 15:0.132686 16:0.322873 17:-0.439417 18:-0.404261 19:0.408341 20:0.186466 21:0.382199 22:0.475851 23:-0.517802 24:-0.011459 25:0.464901 26:-0.055605 27:-0.318197 28:-0.167391 29:0.342524 30:0.442899 31:-0.414408 32:-0.291265 33:0.339112 34:0.284509 35:-0.404837 36:-0.273609
-898.396225 1:-0.144274 2:0.083876 3:0.033937 4:0.640753 5:-0.465247 6:0.080859 7:0.102506 8:-0.362801 9:-0.226398 10:-0.375166 11:0.121739 12:0.063835 13:-0.208287 14:-0.472870 15:0.113269 16:0.073688 17:-0.200884 18:-0.394458 19:0.301530 20:0.072598 21:0.319372 22:0.630901 23:-0.698577 24:-0.104551 25:0.385431 26:-0.220165 27:-0.348366 28:-0.412212 29:0.213150 30:0.475422 31:-0.504259 32:-0.404925 33:0.204767 34:0.324518 35:-0.495820 36:-0.376315
1024.000000 1:-0.167080 2:0.162986 3:0.042986 4:0.554107 5:-0.393141 6:0.062772 7:0.056948 8:-0.110270 9:-0.357075 10:-0.144471 11:0.076087 12:0.179624 13:-0.225780 14:-0.374770 15:0.063646 16:0.207838 17:-0.214648 18:-0.248263 19:0.038104 20:0.106858 21:0.172775 22:0.538704 23:-0.634212 24:-0.119160 25:0.218543 26:0.002678 27:-0.418240 28:-0.216652 29:0.054083 30:0.491196 31:-0.456020 32:-0.323363 33:0.031419 34:0.500585 35:-0.530428 36:-0.188875
-464.376837 1:0.054536 2:-0.045543 3:0.135747 4:0.624979 5:-0.577491 6:-0.156638 7:0.216401 8:-0.198205 9:-0.491220 10:-0.451568 11:0.258696 12:0.242353 13:-0.459334 14:-0.561701 15:0.268608 16:0.227490 17:-0.446094 18:-0.510595 19:0.324332 20:-0.054184 21:0.285340 22:0.774276 23:-0.815614 24:-0.137404 25:0.377483 26:0.096688 27:-0.624572 28:-0.391667 29:0.160127 30:0.675237 31:-0.668969 32:-0.451676 33:0.243770 34:0.432633 35:-0.662180 36:-0.509969
1024.000000 1:-0.112048 2:0.454264 3:0.255656 4:0.385333 5:-0.010593 6:0.385754 7:0.273349 8:-0.369722 9:0.120048 10:0.010594 11:0.197826 12:0.199641 13:0.127444 14:0.075446 15:0.255663 16:0.034165 17:0.196835 18:0.064134 19:0.168917 20:0.305366 21:0.371728 22:0.493133 23:-0.513823 24:0.026170 25:0.486093 26:-0.161765 27:-0.245556 28:-0.218160 29:0.187699 30:0.497528 31:-0.349558 32:-0.126624 33:0.191766 34:0.327038 35:-0.336797 36:-0.110812
-1024.000000 1:-0.148736 2:-0.016939 3:-0.009050 4:0.545673 5:-0.464560 6:-0.071913 7:0.038724 8:-0.216261 9:-0.360437 10:-0.318066 11:0.076087 12:0.152698 13:-0.303737 14:-0.488741 15:0.044229 16:0.211662 17:-0.313918 18:-0.376325 19:0.326133 20:0.112574 21:0.274869 22:0.454232 23:-0.550248 24:-0.105838 25:0.356291 26:-0.063005 27:-0.330965 28:-0.193282 29:0.130435 30:0.427048 31:-0.376310 32:-0.272217 33:0.224269 34:0.273918 35:-0.418856 36:-0.322117
1024.000000 1:-0.071889 2:-0.018744 3:0.192308 4:0.745004 5:-0.644550 6:-0.113446 7:0.111617 8:-0.049511 9:-0.512768 10:-0.268673 11:0.204348 12:0.353571 13:-0.482427 14:-0.487857 15:0.257821 16:0.280259 17:-0.463469 18:-0.477932 19:0.337534 20:0.161174 21:0.350786 22:0.576488 23:-0.604666 24:-0.003675 25:0.464901 26:0.059916 27:-0.419931 28:-0.147454 29:0.289502 30:0.302551 31:-0.376359 32:-0.408924 33:0.315276 34:0.156352 35:-0.375600 36:-0.408081
-1024.000000 1:-0.089241 2:-0.034245 3:0.128959 4:0.699658 5:-0.612678 6:-0.112170 7:0.175399 8:-0.014019 9:-0.583557 10:-0.323629 11:0.147826 12:0.308595 13:-0.434822 14:-0.476622 15:0.121899 16:0.305211 17:-0.418789 18:-0.397065 19:0.220522 20:0.146802 21:0.356021 22:0.735627 23:-0.706133 24:0.055958 25:0.494040 26:-0.012998 27:-0.418086 28:-0.242033 29:0.151644 30:0.610397 31:-0.462574 32:-0.165476 33:0.176598 34:0.363410 35:-0.427128 36:-0.207979
-1024.000000 1:-0.047595 2:0.136560 3:0.214932 4:0.467656 5:-0.409239 6:-0.102309 7:0.220957 8:-0.062716 9:-0.434701 10:-0.179100 11:0.278261 12:0.191144 13:-0.268662 14:-0.393447 15:0.264294 16:0.250436 17:-0.280941 18:-0.263034 19:0.415542 20:0.243945 21:0.408377 22:0.504327 23:-0.532666 24:0.009410 25:0.539073 26:0.263092 27:-0.511265 28:-0.004417 29:0.312831 30:0.440855 31:-0.367179 32:-0.221014 33:0.287107 34:0.408185 35:-0.415846 36:-0.109358
